FANN_FLO_2.1
num_layers=3
learning_rate=0.700000
connection_rate=1.000000
network_type=0
learning_momentum=0.000000
training_algorithm=2
train_error_function=1
train_stop_function=0
cascade_output_change_fraction=0.010000
quickprop_decay=-0.000100
quickprop_mu=1.750000
rprop_increase_factor=1.200000
rprop_decrease_factor=0.500000
rprop_delta_min=0.000000
rprop_delta_max=50.000000
rprop_delta_zero=0.100000
cascade_output_stagnation_epochs=12
cascade_candidate_change_fraction=0.010000
cascade_candidate_stagnation_epochs=12
cascade_max_out_epochs=150
cascade_max_cand_epochs=150
cascade_num_candidate_groups=2
bit_fail_limit=3.49999994039535522461e-01
cascade_candidate_limit=1.00000000000000000000e+03
cascade_weight_multiplier=4.00000005960464477539e-01
cascade_activation_functions_count=10
cascade_activation_functions=3 5 7 8 10 11 14 15 16 17 
cascade_activation_steepnesses_count=4
cascade_activation_steepnesses=2.50000000000000000000e-01 5.00000000000000000000e-01 7.50000000000000000000e-01 1.00000000000000000000e+00 
layer_sizes=12 101 2 
scale_included=0
neurons (num_inputs, activation_function, activation_steepness)=(0, 0, 0.00000000000000000000e+00) (0, 0, 0.00000000000000000000e+00) (0, 0, 0.00000000000000000000e+00) (0, 0, 0.00000000000000000000e+00) (0, 0, 0.00000000000000000000e+00) (0, 0, 0.00000000000000000000e+00) (0, 0, 0.00000000000000000000e+00) (0, 0, 0.00000000000000000000e+00) (0, 0, 0.00000000000000000000e+00) (0, 0, 0.00000000000000000000e+00) (0, 0, 0.00000000000000000000e+00) (0, 0, 0.00000000000000000000e+00) (12, 5, 5.00000000000000000000e-01) (12, 5, 5.00000000000000000000e-01) (12, 5, 5.00000000000000000000e-01) (12, 5, 5.00000000000000000000e-01) (12, 5, 5.00000000000000000000e-01) (12, 5, 5.00000000000000000000e-01) (12, 5, 5.00000000000000000000e-01) (12, 5, 5.00000000000000000000e-01) (12, 5, 5.00000000000000000000e-01) (12, 5, 5.00000000000000000000e-01) (12, 5, 5.00000000000000000000e-01) (12, 5, 5.00000000000000000000e-01) (12, 5, 5.00000000000000000000e-01) (12, 5, 5.00000000000000000000e-01) (12, 5, 5.00000000000000000000e-01) (12, 5, 5.00000000000000000000e-01) (12, 5, 5.00000000000000000000e-01) (12, 5, 5.00000000000000000000e-01) (12, 5, 5.00000000000000000000e-01) (12, 5, 5.00000000000000000000e-01) (12, 5, 5.00000000000000000000e-01) (12, 5, 5.00000000000000000000e-01) (12, 5, 5.00000000000000000000e-01) (12, 5, 5.00000000000000000000e-01) (12, 5, 5.00000000000000000000e-01) (12, 5, 5.00000000000000000000e-01) (12, 5, 5.00000000000000000000e-01) (12, 5, 5.00000000000000000000e-01) (12, 5, 5.00000000000000000000e-01) (12, 5, 5.00000000000000000000e-01) (12, 5, 5.00000000000000000000e-01) (12, 5, 5.00000000000000000000e-01) (12, 5, 5.00000000000000000000e-01) (12, 5, 5.00000000000000000000e-01) (12, 5, 5.00000000000000000000e-01) (12, 5, 5.00000000000000000000e-01) (12, 5, 5.00000000000000000000e-01) (12, 5, 5.00000000000000000000e-01) (12, 5, 5.00000000000000000000e-01) (12, 5, 5.00000000000000000000e-01) (12, 5, 5.00000000000000000000e-01) (12, 5, 5.00000000000000000000e-01) (12, 5, 5.00000000000000000000e-01) (12, 5, 5.00000000000000000000e-01) (12, 5, 5.00000000000000000000e-01) (12, 5, 5.00000000000000000000e-01) (12, 5, 5.00000000000000000000e-01) (12, 5, 5.00000000000000000000e-01) (12, 5, 5.00000000000000000000e-01) (12, 5, 5.00000000000000000000e-01) (12, 5, 5.00000000000000000000e-01) (12, 5, 5.00000000000000000000e-01) (12, 5, 5.00000000000000000000e-01) (12, 5, 5.00000000000000000000e-01) (12, 5, 5.00000000000000000000e-01) (12, 5, 5.00000000000000000000e-01) (12, 5, 5.00000000000000000000e-01) (12, 5, 5.00000000000000000000e-01) (12, 5, 5.00000000000000000000e-01) (12, 5, 5.00000000000000000000e-01) (12, 5, 5.00000000000000000000e-01) (12, 5, 5.00000000000000000000e-01) (12, 5, 5.00000000000000000000e-01) (12, 5, 5.00000000000000000000e-01) (12, 5, 5.00000000000000000000e-01) (12, 5, 5.00000000000000000000e-01) (12, 5, 5.00000000000000000000e-01) (12, 5, 5.00000000000000000000e-01) (12, 5, 5.00000000000000000000e-01) (12, 5, 5.00000000000000000000e-01) (12, 5, 5.00000000000000000000e-01) (12, 5, 5.00000000000000000000e-01) (12, 5, 5.00000000000000000000e-01) (12, 5, 5.00000000000000000000e-01) (12, 5, 5.00000000000000000000e-01) (12, 5, 5.00000000000000000000e-01) (12, 5, 5.00000000000000000000e-01) (12, 5, 5.00000000000000000000e-01) (12, 5, 5.00000000000000000000e-01) (12, 5, 5.00000000000000000000e-01) (12, 5, 5.00000000000000000000e-01) (12, 5, 5.00000000000000000000e-01) (12, 5, 5.00000000000000000000e-01) (12, 5, 5.00000000000000000000e-01) (12, 5, 5.00000000000000000000e-01) (12, 5, 5.00000000000000000000e-01) (12, 5, 5.00000000000000000000e-01) (12, 5, 5.00000000000000000000e-01) (12, 5, 5.00000000000000000000e-01) (12, 5, 5.00000000000000000000e-01) (12, 5, 5.00000000000000000000e-01) (12, 5, 5.00000000000000000000e-01) (12, 5, 5.00000000000000000000e-01) (12, 5, 5.00000000000000000000e-01) (12, 5, 5.00000000000000000000e-01) (12, 5, 5.00000000000000000000e-01) (12, 5, 5.00000000000000000000e-01) (12, 5, 5.00000000000000000000e-01) (12, 5, 5.00000000000000000000e-01) (12, 5, 5.00000000000000000000e-01) (0, 5, 0.00000000000000000000e+00) (101, 5, 5.00000000000000000000e-01) (0, 5, 0.00000000000000000000e+00) 
connections (connected_to_neuron, weight)=(0, -8.60242748260498046875e+00) (1, -2.86074411123991012573e-02) (2, -4.98024165630340576172e-01) (3, -1.51412039995193481445e-01) (4, -1.57172828912734985352e-01) (5, -1.19074459075927734375e+01) (6, -1.35170683264732360840e-01) (7, -5.66245853900909423828e-01) (8, -1.17787551879882812500e+00) (9, -1.26987886428833007812e+00) (10, -3.12636356353759765625e+01) (11, -5.15279471874237060547e-01) (0, -6.95600357055664062500e+01) (1, -1.22988462448120117188e-01) (2, 2.65787336975336074829e-02) (3, 8.78971070051193237305e-02) (4, -2.52229534089565277100e-02) (5, -1.83902145385742187500e+02) (6, -1.13296858966350555420e-01) (7, 9.07642170786857604980e-02) (8, 1.55312549322843551636e-02) (9, 2.77755148708820343018e-02) (10, -3.90561744570732116699e-02) (11, -1.55973220244050025940e-02) (0, 2.02590250968933105469e+00) (1, 3.84378403425216674805e-01) (2, 2.38851919770240783691e-01) (3, 4.48415398597717285156e-01) (4, 3.73431742191314697266e-01) (5, 1.61713075637817382812e+00) (6, 4.00221794843673706055e-01) (7, 3.60290527343750000000e-01) (8, 2.82305032014846801758e-01) (9, 3.86670440435409545898e-01) (10, 1.31410986185073852539e-01) (11, 3.72347474098205566406e-01) (0, -2.22318992614746093750e+01) (1, -1.46286889910697937012e-01) (2, 1.52616307139396667480e-01) (3, 2.07432080060243606567e-02) (4, 7.02732875943183898926e-02) (5, 1.11353147029876708984e+00) (6, 8.22697300463914871216e-03) (7, -1.95216760039329528809e-02) (8, 1.00739508867263793945e-01) (9, 2.75566987693309783936e-02) (10, 1.98265388607978820801e-01) (11, -4.76490333676338195801e-02) (0, -7.89602327346801757812e+00) (1, 3.41867581009864807129e-02) (2, -1.58346384763717651367e-01) (3, -2.11757838726043701172e-01) (4, -2.08317011594772338867e-01) (5, -1.37241048812866210938e+01) (6, -8.26257914304733276367e-02) (7, -1.21880516409873962402e-01) (8, 6.65912702679634094238e-02) (9, -1.44853532314300537109e-01) (10, 1.12354087829589843750e+00) (11, -2.16133385896682739258e-01) (0, -2.74722442626953125000e+01) (1, -8.05731564760208129883e-02) (2, -2.28884108364582061768e-02) (3, 3.85813154280185699463e-02) (4, 2.16593150980770587921e-03) (5, -3.57942161560058593750e+01) (6, -1.34963631629943847656e-01) (7, 6.21610581874847412109e-02) (8, 5.65265379846096038818e-02) (9, 1.57090410590171813965e-01) (10, 1.84313103556632995605e-01) (11, -2.87858508527278900146e-02) (0, -2.19500560760498046875e+01) (1, 2.59791731834411621094e-01) (2, -3.29581685364246368408e-02) (3, -2.22247317433357238770e-02) (4, -6.78372234106063842773e-02) (5, -5.40938043594360351562e+00) (6, 1.18010371923446655273e-01) (7, 1.16323262453079223633e-01) (8, 1.17382146418094635010e-02) (9, 1.97749980725347995758e-03) (10, 8.42513144016265869141e-02) (11, 1.28713876008987426758e-01) (0, 9.61706066131591796875e+00) (1, 1.73997569084167480469e+00) (2, -4.15074378252029418945e-02) (3, -2.03400158882141113281e+00) (4, -9.06800180673599243164e-02) (5, 3.74418735504150390625e-01) (6, -1.19431161880493164062e+00) (7, -1.88254475593566894531e-01) (8, -1.80366063117980957031e+00) (9, -1.03059804439544677734e+00) (10, -3.72162520885467529297e-01) (11, -1.91387593746185302734e-01) (0, -2.62524444580078125000e+02) (1, 3.22534024715423583984e-01) (2, 1.16032913327217102051e-01) (3, 7.94884115457534790039e-02) (4, 6.46154433488845825195e-02) (5, 1.29149150848388671875e+00) (6, 6.95208728313446044922e-01) (7, 4.07912246882915496826e-02) (8, 2.91470829397439956665e-02) (9, -5.55367022752761840820e-02) (10, -5.76260924339294433594e-01) (11, 9.26734060049057006836e-02) (0, 1.49958483886718750000e+03) (1, 1.28943002223968505859e+00) (2, 1.00873365998268127441e-01) (3, -6.15285933017730712891e-01) (4, -5.08252903819084167480e-02) (5, -1.39328842163085937500e+02) (6, 1.87892365455627441406e+00) (7, 1.17120817303657531738e-01) (8, -9.77880656719207763672e-01) (9, -6.12449720501899719238e-02) (10, -7.92334437370300292969e-01) (11, 1.69631332159042358398e-01) (0, -3.86112987995147705078e-01) (1, 4.91585850715637207031e-01) (2, 2.83444195985794067383e-01) (3, 3.23285251855850219727e-01) (4, 4.00339722633361816406e-01) (5, 2.14922761917114257812e+00) (6, 4.46318566799163818359e-01) (7, 4.21893596649169921875e-01) (8, 2.00484827160835266113e-01) (9, 2.93807834386825561523e-01) (10, 1.41256347298622131348e-01) (11, 2.66547828912734985352e-01) (0, 6.79223358631134033203e-01) (1, 4.63225394487380981445e-01) (2, 3.46443504095077514648e-01) (3, 3.87871891260147094727e-01) (4, 3.45797270536422729492e-01) (5, 1.97688627243041992188e+00) (6, 3.89753639698028564453e-01) (7, 3.13325911760330200195e-01) (8, 8.31651762127876281738e-02) (9, 3.93261253833770751953e-01) (10, 1.86415627598762512207e-01) (11, 2.71043121814727783203e-01) (0, 1.07098841667175292969e+00) (1, 3.48777025938034057617e-01) (2, 4.06055033206939697266e-01) (3, 3.82417023181915283203e-01) (4, 3.71153771877288818359e-01) (5, 1.66405844688415527344e+00) (6, 4.21334594488143920898e-01) (7, 4.03000861406326293945e-01) (8, 2.68102258443832397461e-01) (9, 3.67054760456085205078e-01) (10, 1.47801011800765991211e-01) (11, 3.59462797641754150391e-01) (0, -1.87167625427246093750e+01) (1, 6.58361613750457763672e-01) (2, 3.73350113630294799805e-01) (3, -5.28267920017242431641e-01) (4, 1.21323704719543457031e-01) (5, 2.77380108833312988281e+00) (6, 2.40223145484924316406e+00) (7, 2.98235327005386352539e-01) (8, 2.26668193936347961426e-01) (9, 3.35386514663696289062e-01) (10, -1.48915147781372070312e+00) (11, 3.24896633625030517578e-01) (0, 2.36481237411499023438e+00) (1, -1.18357717990875244141e-01) (2, 1.16201288998126983643e-01) (3, 6.93188384175300598145e-02) (4, -4.32953797280788421631e-02) (5, 7.13205218315124511719e-01) (6, 1.20288431644439697266e-02) (7, 7.48577937483787536621e-02) (8, 1.82377561926841735840e-01) (9, 9.46672782301902770996e-02) (10, 1.07880458235740661621e-01) (11, 1.00779488682746887207e-01) (0, 1.56824197769165039062e+01) (1, 5.18135964870452880859e-01) (2, 5.42777121067047119141e-01) (3, 5.10114729404449462891e-01) (4, 5.18814146518707275391e-01) (5, 2.83785891532897949219e+00) (6, 3.77170503139495849609e-01) (7, 4.43531602621078491211e-01) (8, 7.50765502452850341797e-01) (9, 5.88162779808044433594e-01) (10, 6.77038252353668212891e-01) (11, 5.56882083415985107422e-01) (0, 1.14796662330627441406e+00) (1, 3.83383423089981079102e-01) (2, 4.05546903610229492188e-01) (3, 4.00036573410034179688e-01) (4, 3.08832675218582153320e-01) (5, 1.62271237373352050781e+00) (6, 3.21189254522323608398e-01) (7, 3.93904328346252441406e-01) (8, 2.78550356626510620117e-01) (9, 3.76277446746826171875e-01) (10, 2.06306710839271545410e-01) (11, 4.10598099231719970703e-01) (0, 5.72368979454040527344e-01) (1, -2.80807375907897949219e+00) (2, -1.39568090438842773438e-01) (3, 2.30164623260498046875e+00) (4, 6.02955877780914306641e-01) (5, 4.22868818044662475586e-01) (6, -2.21273347735404968262e-01) (7, -1.37720808386802673340e-01) (8, -6.27338552474975585938e+00) (9, -1.97013199329376220703e-01) (10, -7.11824178695678710938e-01) (11, -1.26436784863471984863e-01) (0, -2.31919601559638977051e-01) (1, 3.61327081918716430664e-01) (2, 5.40088713169097900391e-01) (3, 3.54961812496185302734e-01) (4, 3.85440260171890258789e-01) (5, 1.22975356876850128174e-01) (6, 4.46965396404266357422e-01) (7, 4.18997019529342651367e-01) (8, 1.90190255641937255859e-01) (9, 3.19402545690536499023e-01) (10, -2.33833074569702148438e+00) (11, 4.80188101530075073242e-01) (0, 1.95079421997070312500e+01) (1, 1.89584285020828247070e-01) (2, 3.71481925249099731445e-01) (3, 4.22768414020538330078e-01) (4, 2.58576631546020507812e-01) (5, 1.67519450187683105469e+00) (6, 3.15746486186981201172e-01) (7, 3.78918975591659545898e-01) (8, 5.17497539520263671875e-01) (9, 4.02382105588912963867e-01) (10, 1.23173725605010986328e+00) (11, 3.24555277824401855469e-01) (0, 4.80192929506301879883e-01) (1, 3.44106674194335937500e-01) (2, 4.18870598077774047852e-01) (3, 2.75148034095764160156e-01) (4, 3.97893071174621582031e-01) (5, 2.15773892402648925781e+00) (6, 4.74281579256057739258e-01) (7, 2.84691035747528076172e-01) (8, 2.88415044546127319336e-01) (9, 2.94335305690765380859e-01) (10, 4.77348454296588897705e-02) (11, 3.60358685255050659180e-01) (0, 1.56058158874511718750e+01) (1, 5.40542066097259521484e-01) (2, 4.71725046634674072266e-01) (3, 5.43331980705261230469e-01) (4, 4.73346143960952758789e-01) (5, 2.78208136558532714844e+00) (6, 4.31456744670867919922e-01) (7, 4.98310208320617675781e-01) (8, 7.97946214675903320312e-01) (9, 6.37848973274230957031e-01) (10, 6.97889983654022216797e-01) (11, 5.88076651096343994141e-01) (0, 1.63077831268310546875e+01) (1, 4.20351564884185791016e-01) (2, 4.88002061843872070312e-01) (3, 4.79395538568496704102e-01) (4, 5.30088067054748535156e-01) (5, 2.74100804328918457031e+00) (6, 4.84182149171829223633e-01) (7, 5.03456592559814453125e-01) (8, 7.25446283817291259766e-01) (9, 5.59019804000854492188e-01) (10, 7.23655879497528076172e-01) (11, 4.68623995780944824219e-01) (0, 1.56419630050659179688e+01) (1, 4.13141131401062011719e-01) (2, 5.19824862480163574219e-01) (3, 4.99374777078628540039e-01) (4, 5.36555886268615722656e-01) (5, 2.82066273689270019531e+00) (6, 5.66280901432037353516e-01) (7, 5.79772174358367919922e-01) (8, 7.36195683479309082031e-01) (9, 5.00355541706085205078e-01) (10, 6.98501110076904296875e-01) (11, 5.52142262458801269531e-01) (0, -4.17698383331298828125e+00) (1, -7.98365175724029541016e-02) (2, -2.31406092643737792969e-01) (3, -1.91217258572578430176e-01) (4, -1.63141384720802307129e-01) (5, -8.17608737945556640625e+00) (6, -1.83923214673995971680e-01) (7, -3.31664860248565673828e-01) (8, -1.68925508856773376465e-01) (9, -1.52961090207099914551e-01) (10, 7.27074801921844482422e-01) (11, -2.35788255929946899414e-01) (0, 1.57028150558471679688e+01) (1, 4.36942994594573974609e-01) (2, 4.64560270309448242188e-01) (3, 4.42140907049179077148e-01) (4, 5.84229290485382080078e-01) (5, 2.80884385108947753906e+00) (6, 4.19145405292510986328e-01) (7, 4.63591665029525756836e-01) (8, 7.96979784965515136719e-01) (9, 6.01323008537292480469e-01) (10, 7.38364696502685546875e-01) (11, 4.76133942604064941406e-01) (0, 1.97454881668090820312e+00) (1, 3.87036710977554321289e-01) (2, 4.22160923480987548828e-01) (3, 4.19210672378540039062e-01) (4, 3.67910444736480712891e-01) (5, 1.65804028511047363281e+00) (6, 3.91635358333587646484e-01) (7, 2.94529855251312255859e-01) (8, 2.75724798440933227539e-01) (9, 2.72059082984924316406e-01) (10, 2.56163388490676879883e-01) (11, 3.00224423408508300781e-01) (0, 2.82753038406372070312e+00) (1, -1.35827716439962387085e-02) (2, -5.92555813491344451904e-02) (3, -1.03553958237171173096e-01) (4, -1.37740403413772583008e-01) (5, -2.18957352638244628906e+00) (6, -5.38368597626686096191e-02) (7, -2.08211809396743774414e-01) (8, -1.74521386623382568359e-01) (9, -3.61308678984642028809e-02) (10, -2.38099724054336547852e-01) (11, -1.32690042257308959961e-01) (0, 1.62127971649169921875e+01) (1, 4.59163308143615722656e-01) (2, 5.38751184940338134766e-01) (3, 4.61716443300247192383e-01) (4, 4.48139220476150512695e-01) (5, 2.69774270057678222656e+00) (6, 4.46230947971343994141e-01) (7, 5.18504202365875244141e-01) (8, 7.56704747676849365234e-01) (9, 5.26616811752319335938e-01) (10, 6.76329433917999267578e-01) (11, 4.72555577754974365234e-01) (0, 1.07783946990966796875e+01) (1, -1.97377991676330566406e+00) (2, -1.73913285136222839355e-01) (3, 3.34845852851867675781e+00) (4, 8.88623774051666259766e-01) (5, 1.43405652046203613281e+00) (6, -2.23298192024230957031e-01) (7, -2.78083622455596923828e-01) (8, -1.07839574813842773438e+01) (9, -8.32608699798583984375e-01) (10, -9.67893481254577636719e-01) (11, -2.41319715976715087891e-01) (0, 2.37159137725830078125e+01) (1, 1.54955200850963592529e-02) (2, -9.41043868660926818848e-02) (3, -5.09422868490219116211e-02) (4, -5.84138929843902587891e-02) (5, -5.29872886836528778076e-02) (6, 1.24500580132007598877e-01) (7, -1.82816341519355773926e-01) (8, -1.72279651451390236616e-05) (9, -1.02698095142841339111e-01) (10, -2.02441468834877014160e-01) (11, -1.90697908401489257812e-01) (0, 6.26467466354370117188e+00) (1, 3.25174719095230102539e-01) (2, 3.23950082063674926758e-01) (3, 2.43588998913764953613e-01) (4, 2.39586532115936279297e-01) (5, 1.08864676952362060547e+00) (6, 2.48106122016906738281e-01) (7, 3.81556481122970581055e-01) (8, 4.85137075185775756836e-01) (9, 4.55944031476974487305e-01) (10, 1.23752737045288085938e+00) (11, 2.32387885451316833496e-01) (0, 6.97740030288696289062e+00) (1, 3.07904854416847229004e-02) (2, 2.57753487676382064819e-02) (3, -6.71242177486419677734e-03) (4, -3.96252376958727836609e-03) (5, -3.95040168762207031250e+01) (6, 1.79630657657980918884e-03) (7, -9.62055753916501998901e-03) (8, -4.39798505976796150208e-03) (9, -1.71537045389413833618e-03) (10, -1.57854519784450531006e-02) (11, -3.61266769468784332275e-02) (0, 6.30272102355957031250e+00) (1, 3.28292459249496459961e-01) (2, 2.91199922561645507812e-01) (3, 3.69706094264984130859e-01) (4, 2.83158928155899047852e-01) (5, 1.06063961982727050781e+00) (6, 3.38456600904464721680e-01) (7, 4.26166027784347534180e-01) (8, 4.85405772924423217773e-01) (9, 3.26241582632064819336e-01) (10, 1.21843886375427246094e+00) (11, 2.79799997806549072266e-01) (0, -5.66920614242553710938e+00) (1, 1.28869011998176574707e-01) (2, 7.87128359079360961914e-02) (3, -8.94576162099838256836e-02) (4, -1.09570115804672241211e-01) (5, -5.15028667449951171875e+00) (6, 1.90978854894638061523e-01) (7, -5.41771017014980316162e-02) (8, -1.28119541332125663757e-02) (9, -2.33652498573064804077e-02) (10, 1.16838298738002777100e-01) (11, 8.16695094108581542969e-02) (0, 1.62807884216308593750e+01) (1, 5.74649393558502197266e-01) (2, 6.08298122882843017578e-01) (3, 4.51598674058914184570e-01) (4, 4.54541236162185668945e-01) (5, 2.81362891197204589844e+00) (6, 3.97400796413421630859e-01) (7, 6.05781495571136474609e-01) (8, 7.18621432781219482422e-01) (9, 5.23510932922363281250e-01) (10, 7.53061532974243164062e-01) (11, 5.46556770801544189453e-01) (0, 2.83020353317260742188e+00) (1, 4.23290669918060302734e-01) (2, 3.21087956428527832031e-01) (3, 4.48210746049880981445e-01) (4, 3.33553850650787353516e-01) (5, 1.90339398384094238281e+00) (6, 3.72890770435333251953e-01) (7, 2.89484798908233642578e-01) (8, 1.97196543216705322266e-01) (9, 4.16319042444229125977e-01) (10, -2.51293390989303588867e-01) (11, 3.34667146205902099609e-01) (0, 1.70695170760154724121e-01) (1, -1.73688098788261413574e-01) (2, -1.23057797551155090332e-01) (3, -1.95343875885009765625e+00) (4, -9.71746221184730529785e-02) (5, -8.11622381210327148438e-01) (6, -6.84318840503692626953e-02) (7, -1.77762925624847412109e-01) (8, 5.78349888324737548828e-01) (9, -5.59502327814698219299e-03) (10, 1.13309383392333984375e+00) (11, -6.39131441712379455566e-02) (0, -8.62145870923995971680e-02) (1, 3.92406731843948364258e-01) (2, 3.74540567398071289062e-01) (3, 4.31196570396423339844e-01) (4, 4.04057502746582031250e-01) (5, 1.49644219875335693359e+00) (6, 3.97616714239120483398e-01) (7, 3.57458591461181640625e-01) (8, 2.21929743885993957520e-01) (9, 3.72761577367782592773e-01) (10, 2.07873165607452392578e-01) (11, 2.43574097752571105957e-01) (0, -2.25598869323730468750e+01) (1, -1.52080917358398437500e+00) (2, -1.67740911245346069336e-01) (3, 3.66286063194274902344e+00) (4, 5.20986497402191162109e-01) (5, -4.11148643493652343750e+00) (6, 2.21225786209106445312e+00) (7, -1.67277544736862182617e-01) (8, -4.29285430908203125000e+00) (9, -1.56511843204498291016e-01) (10, -1.37157630920410156250e+00) (11, -1.74357369542121887207e-01) (0, -5.44286155700683593750e+00) (1, -3.24548706412315368652e-02) (2, -2.90098339319229125977e-01) (3, -1.96457609534263610840e-01) (4, -1.41816735267639160156e-01) (5, -1.05341100692749023438e+01) (6, 1.12428413704037666321e-02) (7, -3.81924837827682495117e-01) (8, 1.94580405950546264648e-02) (9, -1.08525380492210388184e-01) (10, 7.16082930564880371094e-01) (11, -3.21197301149368286133e-01) (0, -5.47033462524414062500e+01) (1, 7.06211552023887634277e-02) (2, 1.05614364147186279297e+00) (3, 7.38431215286254882812e-01) (4, 1.62517175078392028809e-01) (5, 1.97286546230316162109e-01) (6, 1.44121915102005004883e-01) (7, 1.70839011669158935547e+00) (8, 4.67716445922851562500e+01) (9, 3.44871222972869873047e-01) (10, 9.62049961090087890625e-01) (11, 1.14745986461639404297e+00) (0, 1.56527929306030273438e+01) (1, 5.28400719165802001953e-01) (2, 5.45666575431823730469e-01) (3, 4.70508426427841186523e-01) (4, 4.87596839666366577148e-01) (5, 2.74643230438232421875e+00) (6, 4.61567133665084838867e-01) (7, 5.61359286308288574219e-01) (8, 8.48158478736877441406e-01) (9, 4.63449388742446899414e-01) (10, 7.91518807411193847656e-01) (11, 5.43672025203704833984e-01) (0, -7.74417281150817871094e-01) (1, 4.31305140256881713867e-01) (2, 3.62383246421813964844e-01) (3, 3.55720996856689453125e-01) (4, 3.17799150943756103516e-01) (5, 1.55326092243194580078e+00) (6, 4.79205429553985595703e-01) (7, 3.04596036672592163086e-01) (8, 2.80682474374771118164e-01) (9, 3.77844303846359252930e-01) (10, 2.66879290342330932617e-01) (11, 4.27064597606658935547e-01) (0, 3.08930802345275878906e+00) (1, -9.76887643337249755859e-02) (2, -1.85773268342018127441e-01) (3, -3.27150337398052215576e-02) (4, -1.36283725500106811523e-01) (5, -2.00284504890441894531e+00) (6, -4.00590561330318450928e-02) (7, -5.06087951362133026123e-02) (8, -2.08592459559440612793e-01) (9, -1.07972845435142517090e-01) (10, -2.55351424217224121094e-01) (11, -6.05484172701835632324e-02) (0, 6.60530388355255126953e-01) (1, 3.88491719961166381836e-01) (2, 3.19595158100128173828e-01) (3, 4.20920610427856445312e-01) (4, 3.40080797672271728516e-01) (5, 1.47995412349700927734e+00) (6, 3.84456068277359008789e-01) (7, 3.27356994152069091797e-01) (8, 2.92923361063003540039e-01) (9, 4.11025911569595336914e-01) (10, 2.75660187005996704102e-01) (11, 3.04096966981887817383e-01) (0, -4.45513844490051269531e-01) (1, 6.51767075061798095703e-01) (2, 5.04719853401184082031e-01) (3, 1.22721225023269653320e-01) (4, 3.63227665424346923828e-01) (5, 7.35582530498504638672e-01) (6, 4.06547069549560546875e-01) (7, 3.16468983888626098633e-01) (8, 1.73381716012954711914e-01) (9, 3.46257746219635009766e-01) (10, -2.17199611663818359375e+00) (11, 4.24488872289657592773e-01) (0, -4.64882049560546875000e+01) (1, 7.62395747005939483643e-03) (2, 2.30987966060638427734e-02) (3, 1.20832592248916625977e-01) (4, 6.56285369768738746643e-03) (5, 3.07376289367675781250e+00) (6, -3.29630710184574127197e-02) (7, -2.57698334753513336182e-02) (8, 1.08824446797370910645e-01) (9, -2.51939538866281509399e-02) (10, 2.26553276181221008301e-01) (11, 4.68647591769695281982e-02) (0, 2.27341914176940917969e+00) (1, -6.85337632894515991211e-02) (2, -5.39971292018890380859e-02) (3, 2.12046466767787933350e-02) (4, 8.29870440065860748291e-03) (5, -3.57338600158691406250e+01) (6, -4.49485369026660919189e-02) (7, 8.65791663527488708496e-02) (8, 8.58653113245964050293e-02) (9, 1.35444272309541702271e-02) (10, 2.17458933591842651367e-01) (11, -2.95242457650601863861e-03) (0, -9.43570232391357421875e+00) (1, 7.68224224448204040527e-02) (2, -2.03468147665262222290e-02) (3, -3.11283260583877563477e-01) (4, 9.97627228498458862305e-02) (5, -1.32945756912231445312e+01) (6, 9.12510678172111511230e-02) (7, -5.38493040949106216431e-04) (8, 6.23949095606803894043e-02) (9, -7.05885663628578186035e-02) (10, 8.08431133627891540527e-02) (11, -3.47778685390949249268e-02) (0, 6.24332237243652343750e+00) (1, 3.71389955282211303711e-01) (2, 2.78115540742874145508e-01) (3, 3.11215639114379882812e-01) (4, 2.44017750024795532227e-01) (5, 9.89006221294403076172e-01) (6, 3.76881271600723266602e-01) (7, 3.04762840270996093750e-01) (8, 5.15557527542114257812e-01) (9, 4.45779681205749511719e-01) (10, 1.15603196620941162109e+00) (11, 3.32319885492324829102e-01) (0, 1.96608333587646484375e+01) (1, 1.71436592936515808105e-01) (2, 3.01925063133239746094e-01) (3, 3.47293198108673095703e-01) (4, 3.49959135055541992188e-01) (5, 1.73449635505676269531e+00) (6, 3.69595795869827270508e-01) (7, 3.62092137336730957031e-01) (8, 6.13449156284332275391e-01) (9, 3.77896040678024291992e-01) (10, 1.16008782386779785156e+00) (11, 4.21311110258102416992e-01) (0, -4.26851600408554077148e-01) (1, -1.02184444665908813477e-01) (2, -1.53692467138171195984e-02) (3, 8.62293876707553863525e-03) (4, 6.23152628540992736816e-02) (5, -1.56967267990112304688e+01) (6, -7.89731219410896301270e-02) (7, 9.37746763229370117188e-02) (8, 2.54376903176307678223e-02) (9, 7.47478306293487548828e-02) (10, 2.45202794671058654785e-01) (11, 1.49412006139755249023e-02) (0, -4.12105751037597656250e+00) (1, 4.44931268692016601562e-01) (2, 7.33504414558410644531e-01) (3, 2.04285487532615661621e-01) (4, 2.75476902723312377930e-01) (5, 5.28721690177917480469e-01) (6, 4.64312314987182617188e-01) (7, 5.20035326480865478516e-01) (8, 2.69542813301086425781e-01) (9, 4.05839294195175170898e-01) (10, -2.50179743766784667969e+00) (11, 5.42240977287292480469e-01) (0, 4.00889903306961059570e-01) (1, 3.93235296010971069336e-01) (2, 3.28478902578353881836e-01) (3, 4.44807320833206176758e-01) (4, 3.53118717670440673828e-01) (5, 1.93351817131042480469e+00) (6, 4.72751170396804809570e-01) (7, 4.06606942415237426758e-01) (8, 1.11776702105998992920e-01) (9, 3.88592541217803955078e-01) (10, 1.92134305834770202637e-02) (11, 3.53515833616256713867e-01) (0, -3.06012272834777832031e+00) (1, -9.92744117975234985352e-02) (2, -1.46957382559776306152e-01) (3, -9.69889387488365173340e-02) (4, -1.06600839644670486450e-02) (5, -1.89667141437530517578e+00) (6, 7.38320173695683479309e-03) (7, -9.54452455043792724609e-02) (8, -1.19997143745422363281e-01) (9, -8.34314078092575073242e-02) (10, -1.13297618925571441650e-01) (11, -7.44447782635688781738e-02) (0, 2.94663524627685546875e+00) (1, -8.89024496078491210938e-01) (2, -9.20526012778282165527e-02) (3, 1.04583799839019775391e+00) (4, 4.41888868808746337891e-01) (5, 2.42170643806457519531e+00) (6, -3.13169121742248535156e+00) (7, -2.40090340375900268555e-01) (8, -2.71775627136230468750e+00) (9, -2.38079234957695007324e-01) (10, -3.12703698873519897461e-01) (11, -2.34497576951980590820e-01) (0, -5.09558498859405517578e-01) (1, 1.82123172283172607422e+00) (2, 2.67325448989868164062e+00) (3, 6.61422498524188995361e-04) (4, 3.61662030220031738281e-01) (5, -7.12689340114593505859e-01) (6, 7.49483227729797363281e-01) (7, 5.55131793022155761719e-01) (8, -2.16311946511268615723e-01) (9, 2.66175717115402221680e-01) (10, -4.23455333709716796875e+00) (11, 1.21923112869262695312e+00) (0, -1.24532163143157958984e+00) (1, -1.39286562800407409668e-01) (2, -9.11324381828308105469e-01) (3, -1.77234873175621032715e-01) (4, -2.53632128238677978516e-01) (5, -1.18517608642578125000e+01) (6, -9.34259779751300811768e-03) (7, -8.51179838180541992188e-01) (8, -2.51948332786560058594e+00) (9, -6.05505347251892089844e-01) (10, -1.42906653881072998047e+00) (11, -9.94793117046356201172e-01) (0, 1.56702070236206054688e+01) (1, 4.90850210189819335938e-01) (2, 4.55443382263183593750e-01) (3, 4.34375375509262084961e-01) (4, 5.06856620311737060547e-01) (5, 2.71467161178588867188e+00) (6, 3.91947180032730102539e-01) (7, 4.88512307405471801758e-01) (8, 8.18567812442779541016e-01) (9, 4.81803327798843383789e-01) (10, 7.40918278694152832031e-01) (11, 5.11630117893218994141e-01) (0, 1.61535491943359375000e+01) (1, 4.59094524383544921875e-01) (2, 4.69751834869384765625e-01) (3, 5.46188592910766601562e-01) (4, 5.46760499477386474609e-01) (5, 2.80032229423522949219e+00) (6, 3.69931131601333618164e-01) (7, 4.86594587564468383789e-01) (8, 8.14193964004516601562e-01) (9, 4.81209963560104370117e-01) (10, 7.50283718109130859375e-01) (11, 5.67542016506195068359e-01) (0, 3.29460501670837402344e+00) (1, -1.03149414062500000000e-01) (2, -1.26145705580711364746e-01) (3, 1.03571750223636627197e-01) (4, 2.82222572714090347290e-02) (5, 1.29589855670928955078e+00) (6, -1.09125539660453796387e-01) (7, -1.43133014440536499023e-01) (8, -4.06115531921386718750e-01) (9, -1.89988821744918823242e-01) (10, -2.21294343471527099609e-01) (11, -1.44273057579994201660e-01) (0, 1.01337730884552001953e+00) (1, 4.12685185670852661133e-01) (2, 3.81870210170745849609e-01) (3, 2.75928527116775512695e-01) (4, 3.83312284946441650391e-01) (5, 1.65993642807006835938e+00) (6, 4.07178729772567749023e-01) (7, 4.08845454454421997070e-01) (8, 2.27433398365974426270e-01) (9, 3.45539242029190063477e-01) (10, 2.11247101426124572754e-01) (11, 2.63904392719268798828e-01) (0, 1.61632270812988281250e+01) (1, 4.86867755651473999023e-01) (2, 5.11837840080261230469e-01) (3, 4.29359972476959228516e-01) (4, 5.56022763252258300781e-01) (5, 2.88274931907653808594e+00) (6, 5.05285620689392089844e-01) (7, 5.35582065582275390625e-01) (8, 7.41584062576293945312e-01) (9, 4.88368302583694458008e-01) (10, 7.26914525032043457031e-01) (11, 5.12021958827972412109e-01) (0, -2.68109107017517089844e+00) (1, -1.19301810860633850098e-01) (2, -7.07903653383255004883e-02) (3, -4.18509021401405334473e-02) (4, -1.28451138734817504883e-01) (5, -2.12880492210388183594e+00) (6, -1.41719356179237365723e-01) (7, -1.04584865272045135498e-01) (8, -1.71425506472587585449e-01) (9, -2.28074058890342712402e-01) (10, 2.05641835927963256836e-01) (11, -8.54670330882072448730e-02) (0, 1.56263246536254882812e+01) (1, 4.36959266662597656250e-01) (2, 5.76023161411285400391e-01) (3, 6.13351106643676757812e-01) (4, 6.15353286266326904297e-01) (5, 2.73455095291137695312e+00) (6, 3.84847462177276611328e-01) (7, 4.54802572727203369141e-01) (8, 7.96704113483428955078e-01) (9, 5.59038937091827392578e-01) (10, 6.58797860145568847656e-01) (11, 4.95937049388885498047e-01) (0, 2.54403781890869140625e+00) (1, -8.80596600472927093506e-03) (2, -4.35695424675941467285e-02) (3, 2.21845265477895736694e-02) (4, -1.23442346230149269104e-02) (5, 4.84600067138671875000e-02) (6, -5.16393184661865234375e-02) (7, -8.19533616304397583008e-02) (8, -9.92013141512870788574e-02) (9, -1.75278663635253906250e-01) (10, -1.71740964055061340332e-01) (11, -1.72532454133033752441e-01) (0, 2.07150592803955078125e+01) (1, 1.81780457496643066406e-01) (2, -1.08218640089035034180e-02) (3, -3.34536693990230560303e-02) (4, -6.66419742628931999207e-03) (5, 1.21964178979396820068e-01) (6, 4.41567748785018920898e-02) (7, -1.55211389064788818359e-01) (8, 2.87913866341114044189e-02) (9, -1.52196124196052551270e-01) (10, -2.42752954363822937012e-01) (11, -3.33517342805862426758e-02) (0, 7.43854284286499023438e+00) (1, 1.51645585894584655762e-01) (2, 7.54940986633300781250e-01) (3, 1.77653014659881591797e-01) (4, 3.57792735099792480469e-01) (5, 7.52613925933837890625e+00) (6, 2.00387150049209594727e-01) (7, 1.29648244380950927734e+00) (8, 5.38027584552764892578e-01) (9, 3.44954282045364379883e-01) (10, 1.20298588275909423828e+00) (11, 7.31649875640869140625e-01) (0, -2.82242703437805175781e+00) (1, -8.27019140124320983887e-02) (2, -2.14597448706626892090e-01) (3, -1.71911343932151794434e-01) (4, -1.07665397226810455322e-01) (5, -2.41031098365783691406e+00) (6, -1.14979349076747894287e-01) (7, -2.49288558959960937500e-01) (8, -7.93323107063770294189e-03) (9, -1.70822411775588989258e-01) (10, 4.20185714960098266602e-01) (11, -9.76209267973899841309e-02) (0, -3.09801979064941406250e+01) (1, -1.23865090310573577881e-01) (2, -3.99837568402290344238e-02) (3, 9.66984964907169342041e-03) (4, 1.10780790448188781738e-01) (5, -3.64593849182128906250e+01) (6, -2.50834040343761444092e-02) (7, -8.97025316953659057617e-03) (8, 5.18585927784442901611e-02) (9, 1.30529314279556274414e-01) (10, 5.16550466418266296387e-02) (11, 5.04196481779217720032e-03) (0, 2.02743744850158691406e+00) (1, -2.30705901980400085449e-01) (2, -5.53175918757915496826e-02) (3, -3.21018481254577636719e+00) (4, -1.13426722586154937744e-01) (5, 1.63702934980392456055e-01) (6, -8.38853776454925537109e-01) (7, -2.30294335633516311646e-02) (8, -6.15835934877395629883e-02) (9, 1.06386229395866394043e-01) (10, 1.47458517551422119141e+00) (11, -5.59957437217235565186e-02) (0, 3.08523595333099365234e-01) (1, 3.98164004087448120117e-01) (2, 4.08620893955230712891e-01) (3, 3.84905755519866943359e-01) (4, 4.07252013683319091797e-01) (5, 1.93773233890533447266e+00) (6, 3.90241980552673339844e-01) (7, 4.21334624290466308594e-01) (8, 1.44308462738990783691e-01) (9, 2.95442849397659301758e-01) (10, 7.55649758502840995789e-03) (11, 4.21067267656326293945e-01) (0, -3.57063084840774536133e-01) (1, 4.77930307388305664062e-01) (2, 2.58922547101974487305e-01) (3, 2.79555201530456542969e-01) (4, 3.89800548553466796875e-01) (5, 2.07286453247070312500e+00) (6, 4.04784381389617919922e-01) (7, 3.66412997245788574219e-01) (8, 1.70213639736175537109e-01) (9, 3.90906661748886108398e-01) (10, 9.00549069046974182129e-02) (11, 3.51243644952774047852e-01) (0, 2.00750370025634765625e+01) (1, 7.70436506718397140503e-03) (2, -1.18767566978931427002e-01) (3, -8.43139961361885070801e-02) (4, -4.40961159765720367432e-02) (5, -1.55430153012275695801e-01) (6, -1.12118393182754516602e-01) (7, -1.00622043013572692871e-01) (8, -1.33367657661437988281e-01) (9, -2.75819730013608932495e-02) (10, -2.37989649176597595215e-01) (11, -3.95952835679054260254e-02) (0, -3.16057235002517700195e-01) (1, 4.22241181135177612305e-01) (2, 3.88866603374481201172e-01) (3, 2.64102548360824584961e-01) (4, 4.21133279800415039062e-01) (5, 2.12872362136840820312e+00) (6, 5.21221280097961425781e-01) (7, 3.38456988334655761719e-01) (8, 2.25446432828903198242e-01) (9, 2.32676342129707336426e-01) (10, 1.34731590747833251953e-01) (11, 3.24013859033584594727e-01) (0, -2.45425835251808166504e-01) (1, 2.83703953027725219727e-01) (2, 2.61563271284103393555e-01) (3, 4.50701296329498291016e-01) (4, 4.05185043811798095703e-01) (5, 1.55339515209197998047e+00) (6, 4.20747011899948120117e-01) (7, 2.94081717729568481445e-01) (8, 1.96110948920249938965e-01) (9, 3.98358494043350219727e-01) (10, 2.49685481190681457520e-01) (11, 2.75931715965270996094e-01) (0, -1.05316638946533203125e+00) (1, 4.71990376710891723633e-01) (2, 3.94103109836578369141e-01) (3, 3.29212516546249389648e-01) (4, 4.19069051742553710938e-01) (5, 1.64061629772186279297e+00) (6, 3.45480263233184814453e-01) (7, 3.69556814432144165039e-01) (8, 2.14935138821601867676e-01) (9, 3.96060258150100708008e-01) (10, 2.56415873765945434570e-01) (11, 3.27382922172546386719e-01) (0, 4.40363913774490356445e-01) (1, 4.56093400716781616211e-01) (2, 2.37950369715690612793e-01) (3, 3.27143907546997070312e-01) (4, 3.81716191768646240234e-01) (5, 2.10408806800842285156e+00) (6, 4.94301736354827880859e-01) (7, 2.90729731321334838867e-01) (8, 2.28148132562637329102e-01) (9, 4.08909380435943603516e-01) (10, 5.20278476178646087646e-02) (11, 3.37588548660278320312e-01) (0, 2.02655601501464843750e+00) (1, -1.16333710029721260071e-02) (2, -3.86160463094711303711e-02) (3, 9.01786983013153076172e-03) (4, -6.26015514135360717773e-02) (5, 1.56809225678443908691e-01) (6, -1.01297885179519653320e-01) (7, -2.11940735578536987305e-01) (8, -1.98735728859901428223e-01) (9, -2.86075752228498458862e-02) (10, -2.13920280337333679199e-01) (11, -1.03408254683017730713e-01) (0, 3.31373476982116699219e+00) (1, -1.08778379857540130615e-01) (2, -2.10402876138687133789e-01) (3, -3.26262861490249633789e-01) (4, -1.53463169932365417480e-01) (5, -1.57629597187042236328e+00) (6, -1.75132215023040771484e-01) (7, -2.61971652507781982422e-01) (8, -1.54435530304908752441e-01) (9, -3.23075279593467712402e-02) (10, -2.43700176477432250977e-01) (11, -1.67718380689620971680e-01) (0, -2.75645279884338378906e+00) (1, 4.13042366504669189453e-01) (2, 4.19203817844390869141e-01) (3, -1.11106522381305694580e-01) (4, 2.76193708181381225586e-01) (5, 1.66539394855499267578e+00) (6, 5.07623374462127685547e-01) (7, 4.12750720977783203125e-01) (8, 2.74881899356842041016e-01) (9, 3.64388614892959594727e-01) (10, -1.94542312622070312500e+00) (11, 3.43488156795501708984e-01) (0, -5.70104904472827911377e-02) (1, 4.79044616222381591797e-01) (2, 4.24963802099227905273e-01) (3, 3.34041804075241088867e-01) (4, 3.86549144983291625977e-01) (5, 4.78120058774948120117e-01) (6, 4.10644561052322387695e-01) (7, 4.10810261964797973633e-01) (8, 1.53060346841812133789e-01) (9, 3.76396268606185913086e-01) (10, -2.34583997726440429688e+00) (11, 3.89724135398864746094e-01) (0, 3.74941682815551757812e+00) (1, -1.36536315083503723145e-01) (2, 5.89668713510036468506e-02) (3, 3.67911793291568756104e-02) (4, -2.52166576683521270752e-02) (5, -3.86965980529785156250e+01) (6, 1.75763033330440521240e-02) (7, 7.21029415726661682129e-02) (8, -1.57387033104896545410e-02) (9, 1.79728195071220397949e-02) (10, 2.10900291800498962402e-01) (11, 2.04132357612252235413e-03) (0, 3.19940567016601562500e+00) (1, -6.53835833072662353516e-02) (2, -5.49896173179149627686e-02) (3, -1.75100155174732208252e-02) (4, -1.50628626346588134766e-01) (5, -8.42956125736236572266e-01) (6, -2.03234791755676269531e-01) (7, -1.42547652125358581543e-01) (8, -2.56104409694671630859e-01) (9, -1.20222628116607666016e-01) (10, -2.21210598945617675781e-01) (11, -5.94352483749389648438e-02) (0, 4.28306221961975097656e-01) (1, 4.97026652097702026367e-01) (2, 3.57096940279006958008e-01) (3, 3.19786965847015380859e-01) (4, 3.61222088336944580078e-01) (5, 2.01036763191223144531e+00) (6, 4.92676466703414916992e-01) (7, 2.90005117654800415039e-01) (8, 3.66855747997760772705e-02) (9, 2.94840544462203979492e-01) (10, 1.31677761673927307129e-01) (11, 4.02675241231918334961e-01) (0, 1.11831455230712890625e+01) (1, 1.50065422058105468750e-02) (2, -4.69363629817962646484e-02) (3, -1.49774856567382812500e+01) (4, -6.89669370651245117188e-01) (5, 1.27934207916259765625e+01) (6, 6.98359608650207519531e-02) (7, -4.77556921541690826416e-02) (8, -9.12174224853515625000e-01) (9, -5.27218170464038848877e-02) (10, -3.44915479421615600586e-01) (11, -1.49700567126274108887e-01) (0, 1.05222618579864501953e+00) (1, 4.81280446052551269531e-01) (2, 4.27814722061157226562e-01) (3, 4.06929135322570800781e-01) (4, 3.28791558742523193359e-01) (5, 1.70209980010986328125e+00) (6, 4.55593079328536987305e-01) (7, 3.54620188474655151367e-01) (8, 1.85882821679115295410e-01) (9, 2.77663469314575195312e-01) (10, 2.96488434076309204102e-01) (11, 2.40136072039604187012e-01) (0, -5.21107244491577148438e+00) (1, 1.35369658470153808594e-01) (2, 5.90310851112008094788e-03) (3, -2.58083194494247436523e-01) (4, -5.93812763690948486328e-02) (5, -4.89579868316650390625e+00) (6, 1.17018073797225952148e-01) (7, 3.44168208539485931396e-02) (8, -2.75195222347974777222e-02) (9, -3.00089735537767410278e-02) (10, 8.92512798309326171875e-02) (11, 1.32465243339538574219e-01) (0, -1.52720630168914794922e-01) (1, 5.47506928443908691406e-01) (2, 4.12193268537521362305e-01) (3, 4.02244120836257934570e-01) (4, 3.93348485231399536133e-01) (5, 2.05938816070556640625e+00) (6, 3.80361765623092651367e-01) (7, 2.71403431892395019531e-01) (8, 1.85806378722190856934e-01) (9, 2.26111263036727905273e-01) (10, 1.92699387669563293457e-01) (11, 2.69024640321731567383e-01) (0, 1.80878865718841552734e+00) (1, -5.19423298537731170654e-02) (2, -4.16413657367229461670e-02) (3, 2.70948447287082672119e-02) (4, -2.18178052455186843872e-03) (5, 9.40029248595237731934e-02) (6, 8.11146013438701629639e-03) (7, -1.74348223954439163208e-02) (8, -2.18514144420623779297e-01) (9, -1.55826106667518615723e-01) (10, -1.19643479585647583008e-01) (11, -9.41195189952850341797e-02) (0, 1.56129388809204101562e+01) (1, 4.96069461107254028320e-01) (2, 4.44062888622283935547e-01) (3, 5.37371039390563964844e-01) (4, 5.87024092674255371094e-01) (5, 2.71314120292663574219e+00) (6, 4.70669150352478027344e-01) (7, 5.09332895278930664062e-01) (8, 6.62749230861663818359e-01) (9, 5.41580915451049804688e-01) (10, 6.52844309806823730469e-01) (11, 6.02397143840789794922e-01) (0, -2.47787494659423828125e+01) (1, -3.02620828151702880859e-01) (2, -3.95752042531967163086e-02) (3, 1.03343904018402099609e-01) (4, -7.26091722026467323303e-03) (5, 1.14326846599578857422e+00) (6, 2.77668107300996780396e-02) (7, 9.24451574683189392090e-02) (8, 4.66561578214168548584e-02) (9, 1.15490660071372985840e-01) (10, 1.72971144318580627441e-01) (11, 5.89103773236274719238e-02) (0, 8.96012020111083984375e+00) (1, -1.96545124053955078125e-01) (2, -1.03132374584674835205e-01) (3, -3.42403709888458251953e-01) (4, -2.16534156352281570435e-02) (5, 3.45163536071777343750e+00) (6, -2.35711789131164550781e+00) (7, -2.33268663287162780762e-01) (8, -1.97251653671264648438e+00) (9, -3.02606016397476196289e-01) (10, -1.51989132165908813477e-01) (11, -1.11767143011093139648e-01) (0, -8.95051360130310058594e-01) (1, 3.83143663406372070312e-01) (2, -6.11355863511562347412e-02) (3, 1.54516622424125671387e-01) (4, 3.76759283244609832764e-02) (5, -5.94267964363098144531e-01) (6, 8.67201685905456542969e-01) (7, 4.65466901659965515137e-02) (8, 2.69742235541343688965e-02) (9, 5.73305115103721618652e-02) (10, -4.78865951299667358398e-01) (11, 8.84447712451219558716e-03) (0, 7.42767715454101562500e+00) (1, -6.87199980020523071289e-02) (2, -4.10620160400867462158e-02) (3, 4.50602620840072631836e-02) (4, 5.57139050215482711792e-03) (5, -4.13975105285644531250e+01) (6, 1.68015398085117340088e-02) (7, 9.22344923019409179688e-02) (8, -2.43259761482477188110e-02) (9, 3.32722738385200500488e-02) (10, 1.44670426845550537109e-01) (11, -6.82514160871505737305e-02) (0, 1.57248983383178710938e+01) (1, 4.65738505125045776367e-01) (2, 4.45424377918243408203e-01) (3, 5.71332037448883056641e-01) (4, 4.47047740221023559570e-01) (5, 2.82596063613891601562e+00) (6, 4.41144019365310668945e-01) (7, 6.01180553436279296875e-01) (8, 8.10859143733978271484e-01) (9, 5.37878155708312988281e-01) (10, 7.69938707351684570312e-01) (11, 4.93208408355712890625e-01) (0, 1.81050491333007812500e+01) (1, 2.02116012573242187500e-01) (2, 4.43711787462234497070e-01) (3, 3.65909218788146972656e-01) (4, 2.63721585273742675781e-01) (5, 6.48250699043273925781e-01) (6, 1.65697112679481506348e-01) (7, 4.43252503871917724609e-01) (8, 6.10747992992401123047e-01) (9, 3.88785421848297119141e-01) (10, 1.09139239788055419922e+00) (11, 2.69531995058059692383e-01) (0, 1.57494401931762695312e+01) (1, 4.14526134729385375977e-01) (2, 5.97551226615905761719e-01) (3, 4.60076361894607543945e-01) (4, 5.55653452873229980469e-01) (5, 2.81760334968566894531e+00) (6, 4.04614865779876708984e-01) (7, 5.18713355064392089844e-01) (8, 6.58156573772430419922e-01) (9, 5.12392997741699218750e-01) (10, 6.64679706096649169922e-01) (11, 4.47804033756256103516e-01) (0, -7.70597636699676513672e-01) (1, 3.81341665983200073242e-01) (2, 4.15469765663146972656e-01) (3, 4.10242140293121337891e-01) (4, 4.08338963985443115234e-01) (5, 1.55424869060516357422e+00) (6, 3.24001938104629516602e-01) (7, 2.97320604324340820312e-01) (8, 2.84358948469161987305e-01) (9, 4.08128768205642700195e-01) (10, 9.39805209636688232422e-02) (11, 4.26135659217834472656e-01) (12, 4.96252834796905517578e-01) (13, -9.45648968219757080078e-01) (14, 3.74837785959243774414e-01) (15, -6.17829263210296630859e-01) (16, 1.95281434059143066406e+00) (17, -1.43240249156951904297e+00) (18, 7.07322716712951660156e-01) (19, 4.92868065834045410156e-01) (20, -2.34551072120666503906e+00) (21, -1.21757984161376953125e+00) (22, 3.15588682889938354492e-01) (23, 3.62459272146224975586e-01) (24, 3.56640189886093139648e-01) (25, 3.72291535139083862305e-01) (26, -2.09260419011116027832e-01) (27, -7.68214538693428039551e-02) (28, 4.13560658693313598633e-01) (29, 5.13557255268096923828e-01) (30, 4.05511379241943359375e-01) (31, -3.72570566833019256592e-02) (32, 3.66690695285797119141e-01) (33, -8.00738707184791564941e-02) (34, -9.30835679173469543457e-02) (35, -8.48799422383308410645e-02) (36, 4.74600404500961303711e-01) (37, -8.66898074746131896973e-02) (38, 4.12272900342941284180e-01) (39, 4.43358212709426879883e-01) (40, -9.41177681088447570801e-02) (41, 5.35603702068328857422e-01) (42, 4.80194836854934692383e-01) (43, -2.68636569380760192871e-02) (44, -4.32793766260147094727e-01) (45, -3.72983664274215698242e-02) (46, 8.48033964633941650391e-01) (47, -9.33477655053138732910e-02) (48, 3.89061003923416137695e-01) (49, 4.79620128870010375977e-01) (50, 4.03289705514907836914e-01) (51, 4.65441465377807617188e-01) (52, 4.84465062618255615234e-01) (53, -8.79454761743545532227e-02) (54, -6.19833879172801971436e-02) (55, 4.06993240118026733398e-01) (56, 4.44508522748947143555e-01) (57, 3.95468860864639282227e-01) (58, 3.67226153612136840820e-01) (59, -2.47759759426116943359e-01) (60, -7.61756300926208496094e-02) (61, 1.02768443524837493896e-01) (62, -2.52630375325679779053e-02) (63, -2.51383855938911437988e-02) (64, -2.18742296099662780762e-01) (65, 1.13676214218139648438e+00) (66, 3.29290568828582763672e-01) (67, 4.66637939214706420898e-01) (68, 4.63852316141128540039e-01) (69, 1.88005113601684570312e+00) (70, 4.97929573059082031250e-01) (71, -6.14559166133403778076e-02) (72, -9.47950556874275207520e-02) (73, 5.17294108867645263672e-01) (74, 3.51769894361495971680e-01) (75, -5.58256618678569793701e-02) (76, 4.87137973308563232422e-01) (77, -6.50674477219581604004e-02) (78, 5.10961949825286865234e-01) (79, 4.91532951593399047852e-01) (80, -1.79151073098182678223e-02) (81, 4.95235413312911987305e-01) (82, -1.33738815784454345703e+00) (83, 4.88121658563613891602e-01) (84, 3.66748750209808349609e-01) (85, 4.01511847972869873047e-01) (86, 4.77622151374816894531e-01) (87, 3.91217291355133056641e-01) (88, 3.83125215768814086914e-01) (89, 3.73189121484756469727e-01) (90, 4.03211414813995361328e-01) (91, 4.65488761663436889648e-01) (92, 4.38932418823242187500e-01) (93, 4.22240376472473144531e-01) (94, 4.35332775115966796875e-01) (95, -2.23857253789901733398e-01) (96, 5.06354331970214843750e-01) (97, 3.19032549858093261719e-01) (98, 8.35677027702331542969e-01) (99, 3.30337792634963989258e-01) (100, 2.17808112502098083496e-01) (101, 3.43298584222793579102e-01) (102, 5.62515199184417724609e-01) (103, -7.72299841046333312988e-02) (104, -5.69252967834472656250e-01) (105, 4.29707527160644531250e-01) (106, 3.50234389305114746094e+00) (107, -3.51026535034179687500e-01) (108, -6.21262006461620330811e-02) (109, -4.23525385558605194092e-02) (110, -1.11772753298282623291e-01) (111, 3.71852308511734008789e-01) (112, 2.65211135149002075195e-01) 
