FANN_FLO_2.1
num_layers=3
learning_rate=0.700000
connection_rate=1.000000
network_type=0
learning_momentum=0.000000
training_algorithm=2
train_error_function=1
train_stop_function=0
cascade_output_change_fraction=0.010000
quickprop_decay=-0.000100
quickprop_mu=1.750000
rprop_increase_factor=1.200000
rprop_decrease_factor=0.500000
rprop_delta_min=0.000000
rprop_delta_max=50.000000
rprop_delta_zero=0.100000
cascade_output_stagnation_epochs=12
cascade_candidate_change_fraction=0.010000
cascade_candidate_stagnation_epochs=12
cascade_max_out_epochs=150
cascade_max_cand_epochs=150
cascade_num_candidate_groups=2
bit_fail_limit=3.49999994039535522461e-01
cascade_candidate_limit=1.00000000000000000000e+03
cascade_weight_multiplier=4.00000005960464477539e-01
cascade_activation_functions_count=10
cascade_activation_functions=3 5 7 8 10 11 14 15 16 17 
cascade_activation_steepnesses_count=4
cascade_activation_steepnesses=2.50000000000000000000e-01 5.00000000000000000000e-01 7.50000000000000000000e-01 1.00000000000000000000e+00 
layer_sizes=12 101 2 
scale_included=0
neurons (num_inputs, activation_function, activation_steepness)=(0, 0, 0.00000000000000000000e+00) (0, 0, 0.00000000000000000000e+00) (0, 0, 0.00000000000000000000e+00) (0, 0, 0.00000000000000000000e+00) (0, 0, 0.00000000000000000000e+00) (0, 0, 0.00000000000000000000e+00) (0, 0, 0.00000000000000000000e+00) (0, 0, 0.00000000000000000000e+00) (0, 0, 0.00000000000000000000e+00) (0, 0, 0.00000000000000000000e+00) (0, 0, 0.00000000000000000000e+00) (0, 0, 0.00000000000000000000e+00) (12, 5, 5.00000000000000000000e-01) (12, 5, 5.00000000000000000000e-01) (12, 5, 5.00000000000000000000e-01) (12, 5, 5.00000000000000000000e-01) (12, 5, 5.00000000000000000000e-01) (12, 5, 5.00000000000000000000e-01) (12, 5, 5.00000000000000000000e-01) (12, 5, 5.00000000000000000000e-01) (12, 5, 5.00000000000000000000e-01) (12, 5, 5.00000000000000000000e-01) (12, 5, 5.00000000000000000000e-01) (12, 5, 5.00000000000000000000e-01) (12, 5, 5.00000000000000000000e-01) (12, 5, 5.00000000000000000000e-01) (12, 5, 5.00000000000000000000e-01) (12, 5, 5.00000000000000000000e-01) (12, 5, 5.00000000000000000000e-01) (12, 5, 5.00000000000000000000e-01) (12, 5, 5.00000000000000000000e-01) (12, 5, 5.00000000000000000000e-01) (12, 5, 5.00000000000000000000e-01) (12, 5, 5.00000000000000000000e-01) (12, 5, 5.00000000000000000000e-01) (12, 5, 5.00000000000000000000e-01) (12, 5, 5.00000000000000000000e-01) (12, 5, 5.00000000000000000000e-01) (12, 5, 5.00000000000000000000e-01) (12, 5, 5.00000000000000000000e-01) (12, 5, 5.00000000000000000000e-01) (12, 5, 5.00000000000000000000e-01) (12, 5, 5.00000000000000000000e-01) (12, 5, 5.00000000000000000000e-01) (12, 5, 5.00000000000000000000e-01) (12, 5, 5.00000000000000000000e-01) (12, 5, 5.00000000000000000000e-01) (12, 5, 5.00000000000000000000e-01) (12, 5, 5.00000000000000000000e-01) (12, 5, 5.00000000000000000000e-01) (12, 5, 5.00000000000000000000e-01) (12, 5, 5.00000000000000000000e-01) (12, 5, 5.00000000000000000000e-01) (12, 5, 5.00000000000000000000e-01) (12, 5, 5.00000000000000000000e-01) (12, 5, 5.00000000000000000000e-01) (12, 5, 5.00000000000000000000e-01) (12, 5, 5.00000000000000000000e-01) (12, 5, 5.00000000000000000000e-01) (12, 5, 5.00000000000000000000e-01) (12, 5, 5.00000000000000000000e-01) (12, 5, 5.00000000000000000000e-01) (12, 5, 5.00000000000000000000e-01) (12, 5, 5.00000000000000000000e-01) (12, 5, 5.00000000000000000000e-01) (12, 5, 5.00000000000000000000e-01) (12, 5, 5.00000000000000000000e-01) (12, 5, 5.00000000000000000000e-01) (12, 5, 5.00000000000000000000e-01) (12, 5, 5.00000000000000000000e-01) (12, 5, 5.00000000000000000000e-01) (12, 5, 5.00000000000000000000e-01) (12, 5, 5.00000000000000000000e-01) (12, 5, 5.00000000000000000000e-01) (12, 5, 5.00000000000000000000e-01) (12, 5, 5.00000000000000000000e-01) (12, 5, 5.00000000000000000000e-01) (12, 5, 5.00000000000000000000e-01) (12, 5, 5.00000000000000000000e-01) (12, 5, 5.00000000000000000000e-01) (12, 5, 5.00000000000000000000e-01) (12, 5, 5.00000000000000000000e-01) (12, 5, 5.00000000000000000000e-01) (12, 5, 5.00000000000000000000e-01) (12, 5, 5.00000000000000000000e-01) (12, 5, 5.00000000000000000000e-01) (12, 5, 5.00000000000000000000e-01) (12, 5, 5.00000000000000000000e-01) (12, 5, 5.00000000000000000000e-01) (12, 5, 5.00000000000000000000e-01) (12, 5, 5.00000000000000000000e-01) (12, 5, 5.00000000000000000000e-01) (12, 5, 5.00000000000000000000e-01) (12, 5, 5.00000000000000000000e-01) (12, 5, 5.00000000000000000000e-01) (12, 5, 5.00000000000000000000e-01) (12, 5, 5.00000000000000000000e-01) (12, 5, 5.00000000000000000000e-01) (12, 5, 5.00000000000000000000e-01) (12, 5, 5.00000000000000000000e-01) (12, 5, 5.00000000000000000000e-01) (12, 5, 5.00000000000000000000e-01) (12, 5, 5.00000000000000000000e-01) (12, 5, 5.00000000000000000000e-01) (12, 5, 5.00000000000000000000e-01) (12, 5, 5.00000000000000000000e-01) (12, 5, 5.00000000000000000000e-01) (12, 5, 5.00000000000000000000e-01) (12, 5, 5.00000000000000000000e-01) (12, 5, 5.00000000000000000000e-01) (12, 5, 5.00000000000000000000e-01) (12, 5, 5.00000000000000000000e-01) (0, 5, 0.00000000000000000000e+00) (101, 5, 5.00000000000000000000e-01) (0, 5, 0.00000000000000000000e+00) 
connections (connected_to_neuron, weight)=(0, -1.58262853622436523438e+01) (1, 4.72062438726425170898e-01) (2, 5.69235980510711669922e-01) (3, 8.05121898651123046875e+00) (4, 5.74006080627441406250e-01) (5, -1.43822727203369140625e+01) (6, 3.90287816524505615234e-01) (7, 5.74327826499938964844e-01) (8, 6.93158805370330810547e-01) (9, 6.62998259067535400391e-01) (10, 7.58449494838714599609e-01) (11, 6.75745069980621337891e-01) (0, -2.49759063720703125000e+01) (1, 4.86705750226974487305e-01) (2, 8.40055868029594421387e-02) (3, 1.42330393195152282715e-01) (4, -3.71910035610198974609e-02) (5, -1.20412797927856445312e+01) (6, 1.78829833865165710449e-01) (7, 5.76137052848935127258e-03) (8, 1.70572012662887573242e-01) (9, -4.12812680006027221680e-02) (10, -5.80179095268249511719e-01) (11, 1.30890617147088050842e-02) (0, -1.84664520263671875000e+02) (1, -1.79962381720542907715e-01) (2, -3.14871706068515777588e-02) (3, 2.32310771942138671875e-01) (4, 2.64565218240022659302e-02) (5, 3.28699922561645507812e+00) (6, -1.49726852774620056152e-01) (7, -1.22808650135993957520e-01) (8, 2.04822108149528503418e-01) (9, -1.49737045168876647949e-01) (10, -1.54247716069221496582e-01) (11, -2.15503815561532974243e-02) (0, -4.79233503341674804688e+00) (1, -3.53123784065246582031e-01) (2, -2.27613672614097595215e-01) (3, -2.34073951840400695801e-01) (4, -2.56967067718505859375e-01) (5, -1.05008201599121093750e+01) (6, -2.87379592657089233398e-01) (7, -2.87902474403381347656e-01) (8, -5.97567558288574218750e-01) (9, -4.91485446691513061523e-01) (10, -7.75000286102294921875e+00) (11, -2.12891772389411926270e-01) (0, -2.95580615997314453125e+01) (1, 3.54156583547592163086e-01) (2, 2.09857756271958351135e-03) (3, 1.67112797498703002930e-01) (4, -8.19649361073970794678e-03) (5, -2.15465068817138671875e+01) (6, 1.56777039170265197754e-01) (7, 4.97637949883937835693e-02) (8, 1.76944360136985778809e-01) (9, 2.32886653393507003784e-02) (10, -5.92984318733215332031e-01) (11, 4.04681302607059478760e-02) (0, -5.64414215087890625000e+00) (1, -2.76264429092407226562e-01) (2, -3.27013522386550903320e-01) (3, -3.45625400543212890625e-01) (4, -3.05143028497695922852e-01) (5, -1.04367151260375976562e+01) (6, -2.22146540880203247070e-01) (7, -2.77842313051223754883e-01) (8, -6.27254962921142578125e-01) (9, -3.74350130558013916016e-01) (10, -5.37555170059204101562e+00) (11, -3.18729519844055175781e-01) (0, -2.97376108169555664062e+00) (1, 9.98003065586090087891e-01) (2, 3.81283700466156005859e-01) (3, 4.49221342802047729492e-01) (4, 4.13595169782638549805e-01) (5, 2.18483924865722656250e+00) (6, 9.00144994258880615234e-01) (7, 4.50279980897903442383e-01) (8, 4.47943925857543945312e-01) (9, 5.08809447288513183594e-01) (10, -7.36795086413621902466e-03) (11, 5.36516308784484863281e-01) (0, 2.12057161331176757812e+00) (1, -2.46706493198871612549e-02) (2, -7.44210779666900634766e-02) (3, 2.57013499736785888672e-01) (4, -8.14769193530082702637e-02) (5, -3.31702957153320312500e+01) (6, -1.79535169154405593872e-02) (7, -1.02513618767261505127e-01) (8, 1.17419198155403137207e-01) (9, -6.28681629896163940430e-02) (10, 2.87274599075317382812e-01) (11, -6.68196799233555793762e-03) (0, 1.10272798538208007812e+01) (1, 3.66505354642868041992e-01) (2, 6.48162007331848144531e-01) (3, 6.99162840843200683594e-01) (4, 6.22465133666992187500e-01) (5, 1.08061666488647460938e+01) (6, 2.77867317199707031250e-01) (7, 5.89298009872436523438e-01) (8, 9.96623635292053222656e-01) (9, 6.07781827449798583984e-01) (10, 5.47404432296752929688e+00) (11, 6.91974997520446777344e-01) (0, 3.73802924156188964844e+00) (1, -1.19253480806946754456e-02) (2, -1.21841847896575927734e-01) (3, 8.84452983736991882324e-02) (4, -5.89073635637760162354e-02) (5, -1.35680206298828125000e+02) (6, 2.15974479913711547852e-01) (7, -4.46861721575260162354e-02) (8, -7.00035393238067626953e-02) (9, -7.37114623188972473145e-03) (10, -1.58377498388290405273e-01) (11, -4.64060194790363311768e-02) (0, 1.65418052673339843750e+01) (1, -7.20384025573730468750e+00) (2, -4.66625720262527465820e-01) (3, 2.63833522796630859375e-01) (4, 1.75049994140863418579e-02) (5, 1.70088863372802734375e+01) (6, -6.91526556015014648438e+00) (7, -2.78154075145721435547e-01) (8, -2.92544722557067871094e-01) (9, -3.69404326193034648895e-04) (10, 4.08291006088256835938e+00) (11, -1.62983804941177368164e-01) (0, -2.95785832405090332031e+00) (1, 1.08999955654144287109e+00) (2, 5.20268499851226806641e-01) (3, 4.29886609315872192383e-01) (4, 5.02377033233642578125e-01) (5, 2.14482259750366210938e+00) (6, 8.13516914844512939453e-01) (7, 4.41567569971084594727e-01) (8, 2.89604902267456054688e-01) (9, 4.01877731084823608398e-01) (10, 1.18339955806732177734e-01) (11, 4.32316362857818603516e-01) (0, -1.54018325805664062500e+02) (1, 6.32696807384490966797e-01) (2, 1.01321965456008911133e-01) (3, -1.60122007131576538086e-01) (4, 4.15287688374519348145e-02) (5, -1.76532726287841796875e+01) (6, 2.50492572784423828125e-01) (7, 9.61487740278244018555e-02) (8, 4.59894016385078430176e-02) (9, -8.94218832254409790039e-02) (10, -4.91393744945526123047e-01) (11, 6.35679345577955245972e-03) (0, -1.47310123443603515625e+01) (1, 2.74907588958740234375e-01) (2, -3.07395663112401962280e-02) (3, 9.72718521952629089355e-02) (4, -1.14226013422012329102e-01) (5, -1.33624969482421875000e+02) (6, 1.92902076244354248047e+00) (7, -3.45087274909019470215e-02) (8, -1.03402905166149139404e-01) (9, -1.18016950786113739014e-01) (10, -2.50256508588790893555e-01) (11, 5.76379708945751190186e-03) (0, -1.48711624145507812500e+01) (1, -2.97342509031295776367e-01) (2, -1.26334130764007568359e-01) (3, 3.94860476255416870117e-01) (4, 2.62536033987998962402e-02) (5, -2.52991962432861328125e+01) (6, -3.47854375839233398438e-01) (7, -1.18419133126735687256e-01) (8, 3.85390490293502807617e-01) (9, -5.26208542287349700928e-02) (10, 3.13115924596786499023e-01) (11, 1.91874206066131591797e-02) (0, 3.84236259460449218750e+01) (1, 3.09599369764328002930e-01) (2, 6.92672848701477050781e-01) (3, 6.77305698394775390625e-01) (4, 6.35500073432922363281e-01) (5, 1.09327220916748046875e+01) (6, 4.28416430950164794922e-01) (7, 6.53617501258850097656e-01) (8, 1.06598174571990966797e+00) (9, 6.48944020271301269531e-01) (10, 5.32476043701171875000e+00) (11, 7.29664325714111328125e-01) (0, 1.09813880920410156250e+01) (1, 3.56569737195968627930e-01) (2, 6.32290661334991455078e-01) (3, 6.88907742500305175781e-01) (4, 6.98328793048858642578e-01) (5, 1.08995065689086914062e+01) (6, 2.83188462257385253906e-01) (7, 6.55873894691467285156e-01) (8, 1.13074851036071777344e+00) (9, 6.04097127914428710938e-01) (10, 5.39076089859008789062e+00) (11, 6.92031145095825195312e-01) (0, -3.09514560699462890625e+01) (1, -9.56575348973274230957e-02) (2, 4.41171415150165557861e-02) (3, 2.56736218929290771484e-01) (4, -8.32750648260116577148e-02) (5, -3.36348037719726562500e+01) (6, -1.39795824885368347168e-01) (7, -2.26939991116523742676e-02) (8, 2.93373227119445800781e-01) (9, -7.79433781281113624573e-03) (10, 5.93636035919189453125e-01) (11, 4.81588914990425109863e-02) (0, -1.01887691020965576172e+00) (1, -3.01143616437911987305e-01) (2, -3.67720186710357666016e-01) (3, -2.61675775051116943359e-01) (4, -2.56204068660736083984e-01) (5, -4.73765993118286132812e+00) (6, -3.00127267837524414062e-01) (7, -3.31635296344757080078e-01) (8, -2.38902068138122558594e+00) (9, -2.59078741073608398438e-01) (10, -1.18850171566009521484e+00) (11, -3.68258893489837646484e-01) (0, -1.07648229598999023438e+01) (1, -2.27240055799484252930e-01) (2, -3.14309149980545043945e-01) (3, -3.45713585615158081055e-01) (4, -2.67317295074462890625e-01) (5, -1.05056858062744140625e+01) (6, -2.13056474924087524414e-01) (7, -4.60355848073959350586e-01) (8, -5.87752997875213623047e-01) (9, -3.38600367307662963867e-01) (10, -5.49950361251831054688e+00) (11, -2.77045190334320068359e-01) (0, -4.65153388977050781250e+01) (1, 1.16283282637596130371e-01) (2, 1.14892579615116119385e-01) (3, 1.88799634575843811035e-01) (4, 9.76997315883636474609e-02) (5, -4.59577713012695312500e+01) (6, 4.04271781444549560547e-02) (7, 1.28988489508628845215e-01) (8, 4.01379704475402832031e-01) (9, 9.92881506681442260742e-02) (10, -8.19274067878723144531e-01) (11, 1.35608971118927001953e-01) (0, -3.06166706085205078125e+01) (1, 4.96025383472442626953e-01) (2, 6.60992383956909179688e-01) (3, 5.09575500488281250000e+01) (4, 6.69751226902008056641e-01) (5, -6.74664258956909179688e+00) (6, 4.41990941762924194336e-01) (7, 6.87629878520965576172e-01) (8, 7.48020589351654052734e-01) (9, 5.87003707885742187500e-01) (10, 7.94769883155822753906e-01) (11, 6.62488698959350585938e-01) (0, -2.24008808135986328125e+01) (1, 3.56803327798843383789e-01) (2, 6.37501537799835205078e-01) (3, 2.86655864715576171875e+01) (4, 7.18662381172180175781e-01) (5, -5.41253519058227539062e+00) (6, 3.18549126386642456055e-01) (7, 6.91096067428588867188e-01) (8, 6.72212123870849609375e-01) (9, 6.10743224620819091797e-01) (10, 7.51065194606781005859e-01) (11, 6.65111005306243896484e-01) (0, -5.22952003479003906250e+01) (1, 2.87782903760671615601e-02) (2, 8.02108645439147949219e-02) (3, 7.10720539093017578125e-01) (4, -2.71612461656332015991e-02) (5, -5.73282890319824218750e+01) (6, -1.21795386075973510742e-02) (7, 6.88989236950874328613e-02) (8, 2.06094041466712951660e-01) (9, -8.03327113389968872070e-02) (10, -2.63741344213485717773e-01) (11, -5.02098426222801208496e-02) (0, -4.44941759109497070312e+00) (1, -3.03835690021514892578e-01) (2, -3.44881594181060791016e-01) (3, -3.32098960876464843750e-01) (4, -2.97185838222503662109e-01) (5, -1.04162111282348632812e+01) (6, -2.14096382260322570801e-01) (7, -2.57961988449096679688e-01) (8, -3.27798366546630859375e+00) (9, -3.41653794050216674805e-01) (10, -1.20445692539215087891e+00) (11, -2.91514962911605834961e-01) (0, -1.16796283721923828125e+01) (1, 6.84316992759704589844e-01) (2, 4.80556756258010864258e-01) (3, 2.88207102566957473755e-02) (4, 5.13705432415008544922e-01) (5, -1.23382320404052734375e+01) (6, 7.22999334335327148438e-01) (7, 6.41681253910064697266e-01) (8, 6.81506335735321044922e-01) (9, 7.20057725906372070312e-01) (10, 1.11662459373474121094e+00) (11, 5.69842517375946044922e-01) (0, 1.10558252334594726562e+01) (1, 4.48697477579116821289e-01) (2, 5.60178279876708984375e-01) (3, 7.49650120735168457031e-01) (4, 5.97240686416625976562e-01) (5, 1.08066186904907226562e+01) (6, 2.81516492366790771484e-01) (7, 7.63666152954101562500e-01) (8, 1.05100381374359130859e+00) (9, 6.39271259307861328125e-01) (10, 5.38713645935058593750e+00) (11, 5.84098339080810546875e-01) (0, -2.54100418090820312500e+00) (1, -3.43107163906097412109e-01) (2, -2.36612632870674133301e-01) (3, -2.90766566991806030273e-01) (4, -2.81946033239364624023e-01) (5, -1.04064245223999023438e+01) (6, -3.63774001598358154297e-01) (7, -2.87615686655044555664e-01) (8, -2.44365835189819335938e+00) (9, -3.16840708255767822266e-01) (10, -5.48757851123809814453e-01) (11, -3.06208282709121704102e-01) (0, -1.82946090698242187500e+01) (1, 5.43221423868089914322e-04) (2, -8.17805901169776916504e-02) (3, 2.24146664142608642578e-01) (4, -4.56582605838775634766e-02) (5, -1.69473152160644531250e+01) (6, -1.03427097201347351074e-02) (7, -9.51669923961162567139e-03) (8, 1.82940453290939331055e-01) (9, 2.20219884067773818970e-03) (10, -3.54000598192214965820e-01) (11, 1.40647413209080696106e-02) (0, 5.36044120788574218750e+00) (1, -1.79097545146942138672e+00) (2, -9.50169414281845092773e-02) (3, 5.16409575939178466797e-01) (4, -7.72885382175445556641e-02) (5, 7.12727546691894531250e+00) (6, -1.70565402507781982422e+00) (7, -1.34366542100906372070e-01) (8, 3.49478065967559814453e-01) (9, -1.42076879739761352539e-01) (10, 5.49906015396118164062e-01) (11, -2.10743416100740432739e-02) (0, -2.00483608245849609375e+01) (1, -1.51291579008102416992e-01) (2, -3.79188992083072662354e-02) (3, 1.98527902364730834961e-01) (4, -2.61626150459051132202e-02) (5, -7.82913923263549804688e-01) (6, -5.09055890142917633057e-02) (7, -4.90738824009895324707e-03) (8, 3.21389943361282348633e-01) (9, -5.33468322828412055969e-03) (10, -1.51432156562805175781e-01) (11, -3.76293621957302093506e-02) (0, -3.43706679344177246094e+00) (1, 1.12761664390563964844e+00) (2, 4.94935512542724609375e-01) (3, 4.30911064147949218750e-01) (4, 4.48353409767150878906e-01) (5, 2.22189354896545410156e+00) (6, 7.82205760478973388672e-01) (7, 4.09319162368774414062e-01) (8, 4.94025826454162597656e-01) (9, 4.56560283899307250977e-01) (10, 1.05378396809101104736e-01) (11, 4.20225858688354492188e-01) (0, -3.53845477104187011719e+00) (1, 1.14188110828399658203e+00) (2, 4.88501846790313720703e-01) (3, 4.29814994335174560547e-01) (4, 3.49469870328903198242e-01) (5, 2.16552758216857910156e+00) (6, 8.23362886905670166016e-01) (7, 5.05148887634277343750e-01) (8, 4.22571659088134765625e-01) (9, 4.91401106119155883789e-01) (10, 1.68696820735931396484e-01) (11, 3.71882319450378417969e-01) (0, -2.94185638427734375000e+00) (1, 1.05979239940643310547e+00) (2, 4.86038446426391601562e-01) (3, 4.61933106184005737305e-01) (4, 3.74957770109176635742e-01) (5, 2.18443727493286132812e+00) (6, 7.87482500076293945312e-01) (7, 4.18989270925521850586e-01) (8, 4.10264432430267333984e-01) (9, 5.02280056476593017578e-01) (10, 7.02098533511161804199e-02) (11, 3.75237584114074707031e-01) (0, -1.21971082687377929688e+01) (1, -3.89515429735183715820e-01) (2, -3.12069594860076904297e-01) (3, -2.99288839101791381836e-01) (4, -2.86516547203063964844e-01) (5, -1.03254108428955078125e+01) (6, -2.05145925283432006836e-01) (7, -3.96809935569763183594e-01) (8, -1.47753286361694335938e+00) (9, -2.93226748704910278320e-01) (10, -5.38491106033325195312e+00) (11, -2.25210681557655334473e-01) (0, -3.17409038543701171875e+00) (1, 1.16191470623016357422e+00) (2, 4.91637766361236572266e-01) (3, 4.46756958961486816406e-01) (4, 4.94358748197555541992e-01) (5, 2.12933492660522460938e+00) (6, 9.30560231208801269531e-01) (7, 4.91998761892318725586e-01) (8, 2.84207016229629516602e-01) (9, 4.30474370718002319336e-01) (10, 5.93096390366554260254e-02) (11, 3.91064882278442382812e-01) (0, -1.51736640930175781250e+01) (1, 5.89029669761657714844e-01) (2, 4.93410170078277587891e-01) (3, 1.19053688049316406250e+01) (4, 5.97500801086425781250e-01) (5, -1.72112808227539062500e+01) (6, 3.74903678894042968750e-01) (7, 4.84372138977050781250e-01) (8, 6.59608066082000732422e-01) (9, 5.62230169773101806641e-01) (10, 9.37913894653320312500e-01) (11, 5.11797845363616943359e-01) (0, -1.17884492874145507812e+01) (1, 1.28639888763427734375e+00) (2, 2.59915024042129516602e-01) (3, -1.72886323928833007812e+00) (4, 1.17136150598526000977e-01) (5, -9.90517234802246093750e+00) (6, 1.07563519477844238281e+00) (7, 5.76353847980499267578e-01) (8, 6.98940277099609375000e+00) (9, 7.57269501686096191406e-01) (10, 1.61144924163818359375e+00) (11, 6.57203555107116699219e-01) (0, 1.09776983261108398438e+01) (1, 4.11371409893035888672e-01) (2, 6.07960462570190429688e-01) (3, 7.28635787963867187500e-01) (4, 6.05225741863250732422e-01) (5, 1.09422082901000976562e+01) (6, 4.41112458705902099609e-01) (7, 6.45473659038543701172e-01) (8, 1.02053141593933105469e+00) (9, 6.57624602317810058594e-01) (10, 5.36523008346557617188e+00) (11, 7.31153011322021484375e-01) (0, -3.46527814865112304688e+00) (1, 1.01999223232269287109e+00) (2, 5.25409519672393798828e-01) (3, 3.90909403562545776367e-01) (4, 4.94090378284454345703e-01) (5, 2.14947772026062011719e+00) (6, 8.64497661590576171875e-01) (7, 3.95587772130966186523e-01) (8, 5.00966310501098632812e-01) (9, 4.69396263360977172852e-01) (10, 9.74042862653732299805e-02) (11, 3.66733819246292114258e-01) (0, -8.99242460727691650391e-01) (1, -2.33786508440971374512e-01) (2, -3.43333095312118530273e-01) (3, -3.76376926898956298828e-01) (4, -2.82457798719406127930e-01) (5, -4.73718404769897460938e+00) (6, -2.62207001447677612305e-01) (7, -3.40461015701293945312e-01) (8, -2.33374285697937011719e+00) (9, -2.67396628856658935547e-01) (10, -1.15806388854980468750e+00) (11, -4.21344101428985595703e-01) (0, -1.35621528625488281250e+01) (1, 5.17191827297210693359e-01) (2, -7.57749140262603759766e-01) (3, 1.06336145401000976562e+01) (4, 5.43357551097869873047e-01) (5, -1.40957002639770507812e+01) (6, 5.63158631324768066406e-01) (7, 4.57373946905136108398e-01) (8, 6.47439956665039062500e-01) (9, 5.78516483306884765625e-01) (10, 9.17277991771697998047e-01) (11, 6.87296867370605468750e-01) (0, -2.27096023559570312500e+01) (1, 5.56446373462677001953e-01) (2, 7.28684604167938232422e-01) (3, 2.86803169250488281250e+01) (4, 6.74055218696594238281e-01) (5, -6.32423496246337890625e+00) (6, 4.19211447238922119141e-01) (7, 5.42569935321807861328e-01) (8, 7.03543245792388916016e-01) (9, 6.64890944957733154297e-01) (10, 7.96432018280029296875e-01) (11, 5.96960067749023437500e-01) (0, -6.12590253353118896484e-01) (1, -2.16843843460083007812e-01) (2, -2.92659193277359008789e-01) (3, -2.60346174240112304688e-01) (4, -2.41908952593803405762e-01) (5, -4.49141025543212890625e+00) (6, -2.43269115686416625977e-01) (7, -2.97687590122222900391e-01) (8, -2.44498825073242187500e+00) (9, -4.02906268835067749023e-01) (10, -1.22325086593627929688e+00) (11, -3.07958871126174926758e-01) (0, -2.51000564575195312500e+02) (1, 1.12111461162567138672e+00) (2, 2.17591613531112670898e-01) (3, -1.36323356628417968750e+00) (4, 3.38069424033164978027e-02) (5, -1.31274337768554687500e+02) (6, 9.03154790401458740234e-01) (7, 1.62071943283081054688e-01) (8, -1.09269893169403076172e+00) (9, 1.46314665675163269043e-01) (10, -9.29730534553527832031e-02) (11, 2.26376146078109741211e-01) (0, -3.36990141868591308594e+00) (1, 1.11340773105621337891e+00) (2, 4.92990016937255859375e-01) (3, 4.60551589727401733398e-01) (4, 4.11078095436096191406e-01) (5, 2.24051117897033691406e+00) (6, 9.61698234081268310547e-01) (7, 3.82004141807556152344e-01) (8, 4.55574154853820800781e-01) (9, 4.52640563249588012695e-01) (10, 6.60427585244178771973e-02) (11, 4.94894444942474365234e-01) (0, -3.13787508010864257812e+00) (1, 1.10472428798675537109e+00) (2, 4.21410083770751953125e-01) (3, 4.13944929838180541992e-01) (4, 5.41976451873779296875e-01) (5, 2.27708148956298828125e+00) (6, 7.79432535171508789062e-01) (7, 5.49908638000488281250e-01) (8, 3.95426213741302490234e-01) (9, 4.82423573732376098633e-01) (10, -1.11815236508846282959e-01) (11, 4.83071058988571166992e-01) (0, -4.61783027648925781250e+00) (1, -2.29446575045585632324e-01) (2, -3.87581408023834228516e-01) (3, -2.32133373618125915527e-01) (4, -2.88960278034210205078e-01) (5, -1.04115724563598632812e+01) (6, -2.78135538101196289062e-01) (7, -2.21532836556434631348e-01) (8, -1.59127402305603027344e+00) (9, -3.56930583715438842773e-01) (10, -5.37739896774291992188e+00) (11, -2.78280764818191528320e-01) (0, -2.67287025451660156250e+01) (1, -2.53533691167831420898e-01) (2, 1.15905590355396270752e-02) (3, 8.28127786517143249512e-02) (4, -8.18701535463333129883e-02) (5, -3.40564842224121093750e+01) (6, -2.36093729734420776367e-01) (7, -7.98751562833786010742e-02) (8, 2.09950044751167297363e-01) (9, -9.46042388677597045898e-02) (10, 5.52529811859130859375e-01) (11, -6.01275116205215454102e-02) (0, -2.20749320983886718750e+01) (1, 2.61320006102323532104e-02) (2, -1.82740129530429840088e-02) (3, 2.86560565233230590820e-01) (4, -1.27759929746389389038e-02) (5, -4.27025842666625976562e+00) (6, -1.05951666831970214844e-01) (7, -1.72106027603149414062e-02) (8, 2.00500667095184326172e-01) (9, -6.17158114910125732422e-02) (10, -1.35325551033020019531e-01) (11, 8.89637395739555358887e-02) (0, -4.30143928527832031250e+00) (1, -2.08656355738639831543e-01) (2, -2.45619058609008789062e-01) (3, -3.57640475034713745117e-01) (4, -3.74145001173019409180e-01) (5, -1.04388275146484375000e+01) (6, -1.98733419179916381836e-01) (7, -3.32978755235671997070e-01) (8, -1.64281773567199707031e+00) (9, -2.63049572706222534180e-01) (10, -5.43045759201049804688e+00) (11, -3.55775535106658935547e-01) (0, -8.23516559600830078125e+00) (1, 1.49266287684440612793e-01) (2, -1.92224839702248573303e-03) (3, 3.95511388778686523438e-02) (4, -4.44026552140712738037e-02) (5, -1.31167510986328125000e+02) (6, 2.12363243103027343750e-01) (7, -2.81451921910047531128e-02) (8, -9.61977764964103698730e-02) (9, 3.99253107607364654541e-02) (10, -2.61092096567153930664e-01) (11, 7.42564946413040161133e-02) (0, -3.54482865333557128906e+00) (1, 1.03464829921722412109e+00) (2, 4.33385968208312988281e-01) (3, 4.15018618106842041016e-01) (4, 4.92122381925582885742e-01) (5, 2.22127890586853027344e+00) (6, 8.32431554794311523438e-01) (7, 4.86863285303115844727e-01) (8, 4.29582387208938598633e-01) (9, 3.66689592599868774414e-01) (10, 1.77673459053039550781e-01) (11, 4.98764872550964355469e-01) (0, -1.79769535064697265625e+01) (1, 5.21363615989685058594e-01) (2, 5.53584098815917968750e-01) (3, 1.57680864334106445312e+01) (4, 6.63378000259399414062e-01) (5, -6.90673685073852539062e+00) (6, 5.67046880722045898438e-01) (7, 5.38585245609283447266e-01) (8, 7.33126938343048095703e-01) (9, 6.45939230918884277344e-01) (10, 9.24818515777587890625e-01) (11, 5.59304833412170410156e-01) (0, -1.60903110504150390625e+01) (1, -3.70223611593246459961e-01) (2, -5.42950741946697235107e-02) (3, 2.63944715261459350586e-01) (4, -1.10505603253841400146e-01) (5, 4.96937364339828491211e-01) (6, -7.48738765716552734375e-01) (7, -8.50012823939323425293e-02) (8, 3.71197551488876342773e-01) (9, -2.49530673027038574219e-02) (10, 5.59419035911560058594e-01) (11, -2.17814687639474868774e-02) (0, -2.31162776947021484375e+01) (1, 3.91110122203826904297e-01) (2, 5.66484570503234863281e-01) (3, 2.94673595428466796875e+01) (4, 6.02059841156005859375e-01) (5, -7.10226964950561523438e+00) (6, 4.95903521776199340820e-01) (7, 6.83435559272766113281e-01) (8, 8.19364726543426513672e-01) (9, 6.73973977565765380859e-01) (10, 8.55780482292175292969e-01) (11, 6.57807886600494384766e-01) (0, -5.51358270645141601562e+00) (1, 7.65529274940490722656e-01) (2, 4.61882174015045166016e-01) (3, 4.88968521356582641602e-01) (4, 4.94992375373840332031e-01) (5, -3.87637782096862792969e+00) (6, 7.94414877891540527344e-01) (7, 4.72735017538070678711e-01) (8, 4.23382967710494995117e-01) (9, 4.03652697801589965820e-01) (10, 2.49891340732574462891e-01) (11, 5.09577512741088867188e-01) (0, -1.21512861251831054688e+01) (1, -1.99504032731056213379e-01) (2, -3.70258301496505737305e-01) (3, -2.60921478271484375000e-01) (4, -3.19482743740081787109e-01) (5, -1.03340196609497070312e+01) (6, -2.97196447849273681641e-01) (7, -2.75992661714553833008e-01) (8, -1.63132345676422119141e+00) (9, -2.86368519067764282227e-01) (10, -5.42502737045288085938e+00) (11, -3.26321423053741455078e-01) (0, -2.70384597778320312500e+00) (1, -1.85739025473594665527e-01) (2, -4.02335703372955322266e-01) (3, -2.51807391643524169922e-01) (4, -3.46020072698593139648e-01) (5, -2.10819664001464843750e+01) (6, -3.10135811567306518555e-01) (7, -3.15806865692138671875e-01) (8, -2.32547259330749511719e+00) (9, -3.00465673208236694336e-01) (10, -1.24180817604064941406e+00) (11, -3.21944713592529296875e-01) (0, 1.09322423934936523438e+01) (1, 3.54366034269332885742e-01) (2, 6.30707859992980957031e-01) (3, 6.20526015758514404297e-01) (4, 7.21070468425750732422e-01) (5, 1.08248872756958007812e+01) (6, 4.53033566474914550781e-01) (7, 6.80842876434326171875e-01) (8, 9.66055393218994140625e-01) (9, 5.84344387054443359375e-01) (10, 5.37320041656494140625e+00) (11, 6.76852703094482421875e-01) (0, 1.33637130260467529297e+00) (1, -2.23369240760803222656e+00) (2, -2.71009147167205810547e-01) (3, 3.98493081331253051758e-01) (4, -1.17241106927394866943e-01) (5, -2.45862454175949096680e-01) (6, -2.75193929672241210938e+00) (7, -1.85713678598403930664e-01) (8, 9.45845305919647216797e-01) (9, -2.89145186543464660645e-02) (10, 6.60567641258239746094e-01) (11, -1.57170802354812622070e-01) (0, -2.96781706809997558594e+00) (1, 9.85773921012878417969e-01) (2, 5.31737923622131347656e-01) (3, 3.90703350305557250977e-01) (4, 5.37291049957275390625e-01) (5, 2.14981341361999511719e+00) (6, 7.88577675819396972656e-01) (7, 4.06881213188171386719e-01) (8, 4.23033207654953002930e-01) (9, 4.32346433401107788086e-01) (10, -4.48489375412464141846e-02) (11, 4.60758239030838012695e-01) (0, 1.09931344985961914062e+01) (1, 3.20734888315200805664e-01) (2, 5.89451849460601806641e-01) (3, 7.49202370643615722656e-01) (4, 6.29859805107116699219e-01) (5, 1.08851528167724609375e+01) (6, 3.22214335203170776367e-01) (7, 6.16660118103027343750e-01) (8, 9.70986187458038330078e-01) (9, 6.57881975173950195312e-01) (10, 5.38139200210571289062e+00) (11, 6.50677144527435302734e-01) (0, -3.43736100196838378906e+00) (1, 1.13201248645782470703e+00) (2, 4.48581397533416748047e-01) (3, 4.21977847814559936523e-01) (4, 4.60648119449615478516e-01) (5, 2.08725810050964355469e+00) (6, 9.01110827922821044922e-01) (7, 5.52277565002441406250e-01) (8, 3.93559277057647705078e-01) (9, 4.52920585870742797852e-01) (10, 7.06854835152626037598e-02) (11, 4.26260828971862792969e-01) (0, -3.35589623451232910156e+00) (1, 1.06210696697235107422e+00) (2, 4.87998574972152709961e-01) (3, 4.92706120014190673828e-01) (4, 5.37030398845672607422e-01) (5, 2.06205964088439941406e+00) (6, 8.59849810600280761719e-01) (7, 4.65311527252197265625e-01) (8, 3.16248148679733276367e-01) (9, 4.64541047811508178711e-01) (10, -1.64569281041622161865e-02) (11, 4.53886300325393676758e-01) (0, -3.34844994544982910156e+00) (1, 1.06617176532745361328e+00) (2, 5.11544525623321533203e-01) (3, 3.48913282155990600586e-01) (4, 5.24497926235198974609e-01) (5, 2.10334444046020507812e+00) (6, 8.75703155994415283203e-01) (7, 5.31418859958648681641e-01) (8, 5.00646889209747314453e-01) (9, 3.46544921398162841797e-01) (10, 4.12749461829662322998e-02) (11, 4.56938862800598144531e-01) (0, -3.55725383758544921875e+00) (1, 9.80030894279479980469e-01) (2, 4.69170212745666503906e-01) (3, 4.69672352075576782227e-01) (4, 4.75566059350967407227e-01) (5, 2.25082111358642578125e+00) (6, 7.97675669193267822266e-01) (7, 4.87236768007278442383e-01) (8, 3.98338794708251953125e-01) (9, 5.07457315921783447266e-01) (10, 1.03521272540092468262e-01) (11, 4.30563062429428100586e-01) (0, -3.58845996856689453125e+00) (1, 9.60582673549652099609e-01) (2, 5.53120434284210205078e-01) (3, 3.40495914220809936523e-01) (4, 4.66017007827758789062e-01) (5, 2.12109041213989257812e+00) (6, 8.97884845733642578125e-01) (7, 4.89020437002182006836e-01) (8, 4.39176589250564575195e-01) (9, 4.28520560264587402344e-01) (10, 1.57874017953872680664e-01) (11, 4.89668726921081542969e-01) (0, -4.66738176345825195312e+00) (1, -3.12289476394653320312e-01) (2, -2.75400131940841674805e-01) (3, -2.98013776540756225586e-01) (4, -3.17455172538757324219e-01) (5, -1.05178356170654296875e+01) (6, -3.76917034387588500977e-01) (7, -2.38472104072570800781e-01) (8, -2.33156132698059082031e+00) (9, -2.87155985832214355469e-01) (10, -5.95022797584533691406e-01) (11, -2.64498829841613769531e-01) (0, -1.15049419403076171875e+01) (1, -2.41408184170722961426e-01) (2, -3.11614573001861572266e-01) (3, -3.96932154893875122070e-01) (4, -2.90769994258880615234e-01) (5, -1.03286914825439453125e+01) (6, -2.96386480331420898438e-01) (7, -3.17933619022369384766e-01) (8, -1.45934426784515380859e+00) (9, -3.17858844995498657227e-01) (10, -5.39584875106811523438e+00) (11, -2.91784882545471191406e-01) (0, -1.21723108291625976562e+01) (1, -3.42796742916107177734e-01) (2, -3.41892600059509277344e-01) (3, -3.01835626363754272461e-01) (4, -2.70546585321426391602e-01) (5, -1.04945831298828125000e+01) (6, -3.37388962507247924805e-01) (7, -3.52324277162551879883e-01) (8, -1.53534412384033203125e+00) (9, -2.34383299946784973145e-01) (10, -1.20284163951873779297e+00) (11, -3.87778282165527343750e-01) (0, -2.88600311279296875000e+01) (1, 1.85633897781372070312e+00) (2, 6.01723611354827880859e-01) (3, -2.83853232860565185547e-01) (4, 4.57824230194091796875e-01) (5, 3.99974937438964843750e+01) (6, 9.82784688472747802734e-01) (7, 4.52131927013397216797e-01) (8, 2.79182046651840209961e-01) (9, 3.88834118843078613281e-01) (10, -1.60855138301849365234e+00) (11, 5.63263893127441406250e-01) (0, -2.77901477813720703125e+01) (1, 3.57973545789718627930e-01) (2, 2.59629581123590469360e-02) (3, -4.40317898988723754883e-01) (4, 3.22921536862850189209e-02) (5, -1.29856353759765625000e+02) (6, 2.52073407173156738281e-01) (7, 1.60445630550384521484e-01) (8, -6.02232694625854492188e-01) (9, 9.01069398969411849976e-03) (10, -9.91450473666191101074e-02) (11, 1.51336744427680969238e-01) (0, -3.03613638877868652344e+00) (1, 1.11373984813690185547e+00) (2, 3.54471415281295776367e-01) (3, 4.80825245380401611328e-01) (4, 4.72696125507354736328e-01) (5, 2.21878266334533691406e+00) (6, 9.54624354839324951172e-01) (7, 4.60610985755920410156e-01) (8, 4.29012835025787353516e-01) (9, 5.12201011180877685547e-01) (10, 3.25254374183714389801e-03) (11, 4.07467544078826904297e-01) (0, -3.47158837318420410156e+00) (1, 1.04257404804229736328e+00) (2, 4.62010562419891357422e-01) (3, 4.46478277444839477539e-01) (4, 4.75549519062042236328e-01) (5, 2.18953990936279296875e+00) (6, 8.61283600330352783203e-01) (7, 5.31308293342590332031e-01) (8, 4.19220745563507080078e-01) (9, 4.94173347949981689453e-01) (10, 1.62394084036350250244e-02) (11, 4.99431818723678588867e-01) (0, -3.72179007530212402344e+00) (1, 1.14238178730010986328e+00) (2, 5.00167906284332275391e-01) (3, 4.57060307264328002930e-01) (4, 5.43084025382995605469e-01) (5, 2.07080912590026855469e+00) (6, 8.58114659786224365234e-01) (7, 4.00864481925964355469e-01) (8, 5.03435850143432617188e-01) (9, 4.34367030858993530273e-01) (10, 1.14345867186784744263e-02) (11, 4.69559520483016967773e-01) (0, -2.83176255226135253906e+00) (1, 7.81348526477813720703e-01) (2, 4.13246989250183105469e-01) (3, 3.29050779342651367188e-01) (4, 5.15982031822204589844e-01) (5, 4.12136383056640625000e+01) (6, 8.38704049587249755859e-01) (7, 4.27015125751495361328e-01) (8, 2.76482343673706054688e-01) (9, 5.09813547134399414062e-01) (10, -1.12185966968536376953e+00) (11, 5.13695001602172851562e-01) (0, -6.90745234489440917969e-01) (1, 8.33201467990875244141e-01) (2, 7.49427497386932373047e-01) (3, -2.19887629151344299316e-01) (4, 3.90796154737472534180e-01) (5, -5.86097717285156250000e-01) (6, 9.19564664363861083984e-01) (7, 6.15215003490447998047e-01) (8, -7.85291288048028945923e-03) (9, 4.79983210563659667969e-01) (10, -2.55371189117431640625e+00) (11, 5.14916062355041503906e-01) (0, 3.36393623352050781250e+01) (1, -8.98960173130035400391e-01) (2, 1.80372118949890136719e+00) (3, 4.88789749145507812500e+00) (4, 4.44470584392547607422e-01) (5, -1.63470668792724609375e+01) (6, 9.21783506870269775391e-01) (7, 5.17752528190612792969e-01) (8, -2.40900635719299316406e+00) (9, 4.72095608711242675781e-01) (10, 2.43274554610252380371e-01) (11, 5.36394536495208740234e-01) (0, -1.70519561767578125000e+01) (1, 5.58204233646392822266e-01) (2, 5.52696645259857177734e-01) (3, 1.38473987579345703125e+01) (4, 7.18453884124755859375e-01) (5, -6.91850280761718750000e+00) (6, 4.62030649185180664062e-01) (7, 6.34523749351501464844e-01) (8, 6.80274784564971923828e-01) (9, 5.56205451488494873047e-01) (10, 8.74318420886993408203e-01) (11, 6.53308928012847900391e-01) (0, 1.16453685760498046875e+01) (1, 4.00948494672775268555e-01) (2, 6.15983307361602783203e-01) (3, 7.05005645751953125000e-01) (4, 6.40247941017150878906e-01) (5, 1.09401473999023437500e+01) (6, 3.06650072336196899414e-01) (7, 6.08940899372100830078e-01) (8, 1.07734203338623046875e+00) (9, 5.89982211589813232422e-01) (10, 5.32579183578491210938e+00) (11, 5.77812671661376953125e-01) (0, -1.71929225921630859375e+01) (1, 4.67885345220565795898e-01) (2, 6.77627623081207275391e-01) (3, 1.39415340423583984375e+01) (4, 5.84729850292205810547e-01) (5, -6.54891061782836914062e+00) (6, 5.30177712440490722656e-01) (7, 6.52338385581970214844e-01) (8, 6.55816853046417236328e-01) (9, 7.34668970108032226562e-01) (10, 7.65904724597930908203e-01) (11, 5.90653181076049804688e-01) (0, -2.75227069854736328125e+01) (1, -2.63679891824722290039e-01) (2, 1.17983026430010795593e-02) (3, 2.72499263286590576172e-01) (4, -1.52754588052630424500e-02) (5, -3.63377532958984375000e+01) (6, -1.84239968657493591309e-01) (7, -6.89735785126686096191e-02) (8, 3.96250456571578979492e-01) (9, -9.35999453067779541016e-02) (10, 5.47397017478942871094e-01) (11, -5.80913163721561431885e-02) (0, -3.22005486488342285156e+00) (1, 1.14442920684814453125e+00) (2, 4.56269383430480957031e-01) (3, 3.99669438600540161133e-01) (4, 5.37149846553802490234e-01) (5, 2.17361664772033691406e+00) (6, 8.61345171928405761719e-01) (7, 5.47639012336730957031e-01) (8, 2.85566061735153198242e-01) (9, 3.72248440980911254883e-01) (10, 1.18953168392181396484e-01) (11, 4.05536025762557983398e-01) (0, 1.35040313720703125000e+02) (1, 4.71579611301422119141e-01) (2, 2.06023955345153808594e+00) (3, 3.21206808090209960938e+00) (4, 5.14356553554534912109e-01) (5, -1.22499752044677734375e+01) (6, 8.71749937534332275391e-01) (7, 5.31233191490173339844e-01) (8, -1.96356511116027832031e+00) (9, 4.86025035381317138672e-01) (10, -1.24851226806640625000e+00) (11, 5.30158281326293945312e-01) (0, -3.47673726081848144531e+00) (1, 1.10305261611938476562e+00) (2, 3.71867358684539794922e-01) (3, 3.28426569700241088867e-01) (4, 4.96783614158630371094e-01) (5, 2.24702167510986328125e+00) (6, 8.42711150646209716797e-01) (7, 4.64715987443923950195e-01) (8, 4.41677719354629516602e-01) (9, 5.19756734371185302734e-01) (10, 1.57578647136688232422e-01) (11, 4.87848550081253051758e-01) (0, -3.25700068473815917969e+00) (1, 1.05544149875640869141e+00) (2, 4.98231887817382812500e-01) (3, 4.37088966369628906250e-01) (4, 4.68915492296218872070e-01) (5, 2.21668124198913574219e+00) (6, 9.48781669139862060547e-01) (7, 3.85865241289138793945e-01) (8, 4.14416491985321044922e-01) (9, 4.89444017410278320312e-01) (10, 3.73297807527706027031e-04) (11, 3.93428593873977661133e-01) (0, -4.83383083343505859375e+00) (1, 1.60530567169189453125e+00) (2, 5.31370103359222412109e-01) (3, 3.35694938898086547852e-01) (4, 5.09128332138061523438e-01) (5, 1.42338037490844726562e+00) (6, 2.74656105041503906250e+00) (7, 5.31807065010070800781e-01) (8, 3.54371696710586547852e-01) (9, 5.24112641811370849609e-01) (10, -4.70913313329219818115e-02) (11, 3.99227857589721679688e-01) (0, -3.42884206771850585938e+00) (1, 1.03851854801177978516e+00) (2, 5.25471389293670654297e-01) (3, 4.18038278818130493164e-01) (4, 4.02246177196502685547e-01) (5, 2.23694491386413574219e+00) (6, 8.07070493698120117188e-01) (7, 5.10185956954956054688e-01) (8, 3.70775282382965087891e-01) (9, 5.23958325386047363281e-01) (10, 7.51578807830810546875e-02) (11, 5.36236763000488281250e-01) (0, 3.41875953674316406250e+01) (1, 3.30992668867111206055e-01) (2, 5.79888164997100830078e-01) (3, 6.26106083393096923828e-01) (4, 5.83627641201019287109e-01) (5, 1.21041882038116455078e+00) (6, 3.41085821390151977539e-01) (7, 7.06285595893859863281e-01) (8, 9.95517373085021972656e-01) (9, 6.21904134750366210938e-01) (10, 5.45940351486206054688e+00) (11, 5.83773255348205566406e-01) (0, -2.08678150177001953125e+00) (1, -2.86593437194824218750e-01) (2, -2.03798249363899230957e-01) (3, -3.00633341073989868164e-01) (4, -3.26728940010070800781e-01) (5, -1.03269128799438476562e+01) (6, -2.40051150321960449219e-01) (7, -3.63420307636260986328e-01) (8, -2.44494223594665527344e+00) (9, -3.48563998937606811523e-01) (10, -1.20042049884796142578e+00) (11, -2.90013194084167480469e-01) (0, -1.98848748207092285156e+00) (1, -2.04788506031036376953e-01) (2, -3.35185587406158447266e-01) (3, -2.48850747942924499512e-01) (4, -3.05910259485244750977e-01) (5, -1.03612289428710937500e+01) (6, -2.45954602956771850586e-01) (7, -3.29690366983413696289e-01) (8, -7.40263044834136962891e-01) (9, -3.09928447008132934570e-01) (10, -5.38269472122192382812e+00) (11, -4.00907814502716064453e-01) (0, -1.39349794387817382812e+01) (1, 5.87749481201171875000e-01) (2, 5.10207772254943847656e-01) (3, 1.94690299034118652344e+00) (4, 5.58449268341064453125e-01) (5, -1.04723854064941406250e+01) (6, 7.22484230995178222656e-01) (7, 5.55677235126495361328e-01) (8, 6.14603817462921142578e-01) (9, 6.05881571769714355469e-01) (10, 1.07458126544952392578e+00) (11, 6.84612810611724853516e-01) (0, -2.36805701255798339844e+00) (1, -3.00790250301361083984e-01) (2, -2.17337429523468017578e-01) (3, -2.72386938333511352539e-01) (4, -3.89179587364196777344e-01) (5, -1.03872337341308593750e+01) (6, -3.35337102413177490234e-01) (7, -2.75911092758178710938e-01) (8, -2.38657665252685546875e+00) (9, -2.68715590238571166992e-01) (10, -5.40435266494750976562e+00) (11, -3.09579193592071533203e-01) (0, -2.98130722045898437500e+01) (1, 4.52993065118789672852e-01) (2, 5.04416763782501220703e-01) (3, 5.10704727172851562500e+01) (4, 5.77791392803192138672e-01) (5, -6.84171438217163085938e+00) (6, 5.60733616352081298828e-01) (7, 5.36806881427764892578e-01) (8, 6.16093575954437255859e-01) (9, 6.51246726512908935547e-01) (10, 8.34895312786102294922e-01) (11, 6.79904758930206298828e-01) (0, -3.02946338653564453125e+01) (1, 5.13571500778198242188e-01) (2, 1.71079039573669433594e-01) (3, -1.46690443158149719238e-01) (4, -1.13462461158633232117e-02) (5, -1.00961380004882812500e+02) (6, 2.27816984057426452637e-01) (7, 9.19855982065200805664e-02) (8, -3.47867935895919799805e-01) (9, -2.37927976995706558228e-02) (10, -2.04890623688697814941e-01) (11, 1.00972980260848999023e-01) (0, -3.53715252876281738281e+00) (1, 8.54320943355560302734e-01) (2, 5.33500492572784423828e-01) (3, 3.91768753528594970703e-01) (4, 3.82112503051757812500e-01) (5, 2.14919710159301757812e+00) (6, 9.53443169593811035156e-01) (7, 5.08156478404998779297e-01) (8, 4.47595506906509399414e-01) (9, 5.35212635993957519531e-01) (10, 7.79700428247451782227e-02) (11, 5.23051142692565917969e-01) (0, -5.53280210494995117188e+00) (1, -3.29918384552001953125e-01) (2, -3.80551695823669433594e-01) (3, -3.83140742778778076172e-01) (4, -2.07408219575881958008e-01) (5, -1.04174909591674804688e+01) (6, -2.32739761471748352051e-01) (7, -3.48497658967971801758e-01) (8, -1.59297180175781250000e+00) (9, -2.91375488042831420898e-01) (10, -7.41211056709289550781e-01) (11, -3.26776742935180664062e-01) (0, -2.41225385665893554688e+00) (1, -2.34849646687507629395e-01) (2, -2.33359679579734802246e-01) (3, -3.88087034225463867188e-01) (4, -2.43039861321449279785e-01) (5, -1.03414583206176757812e+01) (6, -3.40215206146240234375e-01) (7, -2.86953598260879516602e-01) (8, -2.45186495780944824219e+00) (9, -3.84034395217895507812e-01) (10, -5.19165754318237304688e-01) (11, -3.00520330667495727539e-01) (0, -4.36659812927246093750e+00) (1, -1.86891064047813415527e-01) (2, -3.31639826297760009766e-01) (3, -3.44762593507766723633e-01) (4, -2.28411942720413208008e-01) (5, -1.03669681549072265625e+01) (6, -3.24784159660339355469e-01) (7, -3.03309619426727294922e-01) (8, -9.19102072715759277344e-01) (9, -3.50565701723098754883e-01) (10, -5.38562345504760742188e+00) (11, -3.85757058858871459961e-01) (12, -2.33072370290756225586e-01) (13, -1.67225182056427001953e-01) (14, -6.67560100555419921875e-01) (15, 5.98730027675628662109e-01) (16, -2.51399606466293334961e-01) (17, 5.82388401031494140625e-01) (18, 4.51031059026718139648e-01) (19, -5.08806407451629638672e-01) (20, -2.18310594558715820312e-01) (21, -2.56575703620910644531e-01) (22, -8.96829187870025634766e-01) (23, 4.87849026918411254883e-01) (24, -2.80873030424118041992e-01) (25, -4.16103214025497436523e-01) (26, -2.43972912430763244629e-01) (27, -2.66436636447906494141e-01) (28, -2.62418866157531738281e-01) (29, -3.58068317174911499023e-01) (30, 6.06336593627929687500e-01) (31, 6.22718393802642822266e-01) (32, -7.43988037109375000000e-01) (33, -2.93524563312530517578e-01) (34, -2.77081012725830078125e-01) (35, -6.70554757118225097656e-01) (36, 6.27827882766723632812e-01) (37, -2.47613579034805297852e-01) (38, -2.78641968965530395508e-01) (39, 6.46659970283508300781e-01) (40, -2.87133425474166870117e-01) (41, -6.52457654476165771484e-01) (42, -2.21633911132812500000e-01) (43, 5.25293946266174316406e-01) (44, 4.61493521928787231445e-01) (45, 5.05351245403289794922e-01) (46, 5.85668206214904785156e-01) (47, 4.62268978357315063477e-01) (48, -2.36514404416084289551e-01) (49, -8.30353438854217529297e-01) (50, -2.53442645072937011719e-01) (51, 4.96451675891876220703e-01) (52, 5.75381457805633544922e-01) (53, -2.18320846557617187500e-01) (54, -2.87273108959197998047e-01) (55, 6.35975837707519531250e-01) (56, -9.95923399925231933594e-01) (57, 5.11774778366088867188e-01) (58, 5.35083174705505371094e-01) (59, 5.80449342727661132812e-01) (60, 8.72722566127777099609e-01) (61, -2.82028943300247192383e-01) (62, 6.34076714515686035156e-01) (63, -3.31375062465667724609e-01) (64, 4.73504513502120971680e-01) (65, -2.12679639458656311035e-01) (66, -6.81762099266052246094e-01) (67, -2.00813680887222290039e-01) (68, 4.83211696147918701172e-01) (69, 5.81188559532165527344e-01) (70, 6.38981819152832031250e-01) (71, -2.33737528324127197266e-01) (72, -1.89441144466400146484e+00) (73, 5.05411207675933837891e-01) (74, -2.46962577104568481445e-01) (75, 5.14995694160461425781e-01) (76, 4.72241491079330444336e-01) (77, 5.04085183143615722656e-01) (78, 4.38745647668838500977e-01) (79, 4.52534347772598266602e-01) (80, 6.63585424423217773438e-01) (81, 6.11666202545166015625e-01) (82, 6.41042411327362060547e-01) (83, 4.43951308727264404297e-01) (84, -2.50089108943939208984e-01) (85, 5.17736375331878662109e-01) (86, 5.06678044795989990234e-01) (87, 4.40072566270828247070e-01) (88, 4.92013692855834960938e-01) (89, 1.31063425540924072266e+00) (90, 6.00228846073150634766e-01) (91, -2.12559103965759277344e-01) (92, -1.97255313396453857422e-01) (93, -2.17095389962196350098e-01) (94, -3.98796141147613525391e-01) (95, 4.72200840711593627930e-01) (96, 9.23532307147979736328e-01) (97, 4.94519770145416259766e-01) (98, 4.65925246477127075195e-01) (99, 4.42578345537185668945e-01) (100, 5.06781697273254394531e-01) (101, -1.97086870670318603516e-01) (102, 6.34298443794250488281e-01) (103, 5.90690672397613525391e-01) (104, -2.35515505075454711914e-01) (105, 5.83287537097930908203e-01) (106, -1.99476793408393859863e-01) (107, -6.70931860804557800293e-02) (108, 5.18444955348968505859e-01) (109, 6.67396068572998046875e-01) (110, 5.82426846027374267578e-01) (111, 6.43674552440643310547e-01) (112, 4.80977147817611694336e-01) 
