FANN_FLO_2.1
num_layers=3
learning_rate=0.700000
connection_rate=1.000000
network_type=0
learning_momentum=0.000000
training_algorithm=2
train_error_function=1
train_stop_function=0
cascade_output_change_fraction=0.010000
quickprop_decay=-0.000100
quickprop_mu=1.750000
rprop_increase_factor=1.200000
rprop_decrease_factor=0.500000
rprop_delta_min=0.000000
rprop_delta_max=50.000000
rprop_delta_zero=0.100000
cascade_output_stagnation_epochs=12
cascade_candidate_change_fraction=0.010000
cascade_candidate_stagnation_epochs=12
cascade_max_out_epochs=150
cascade_max_cand_epochs=150
cascade_num_candidate_groups=2
bit_fail_limit=3.49999994039535522461e-01
cascade_candidate_limit=1.00000000000000000000e+03
cascade_weight_multiplier=4.00000005960464477539e-01
cascade_activation_functions_count=10
cascade_activation_functions=3 5 7 8 10 11 14 15 16 17 
cascade_activation_steepnesses_count=4
cascade_activation_steepnesses=2.50000000000000000000e-01 5.00000000000000000000e-01 7.50000000000000000000e-01 1.00000000000000000000e+00 
layer_sizes=6 101 2 
scale_included=0
neurons (num_inputs, activation_function, activation_steepness)=(0, 0, 0.00000000000000000000e+00) (0, 0, 0.00000000000000000000e+00) (0, 0, 0.00000000000000000000e+00) (0, 0, 0.00000000000000000000e+00) (0, 0, 0.00000000000000000000e+00) (0, 0, 0.00000000000000000000e+00) (6, 5, 5.00000000000000000000e-01) (6, 5, 5.00000000000000000000e-01) (6, 5, 5.00000000000000000000e-01) (6, 5, 5.00000000000000000000e-01) (6, 5, 5.00000000000000000000e-01) (6, 5, 5.00000000000000000000e-01) (6, 5, 5.00000000000000000000e-01) (6, 5, 5.00000000000000000000e-01) (6, 5, 5.00000000000000000000e-01) (6, 5, 5.00000000000000000000e-01) (6, 5, 5.00000000000000000000e-01) (6, 5, 5.00000000000000000000e-01) (6, 5, 5.00000000000000000000e-01) (6, 5, 5.00000000000000000000e-01) (6, 5, 5.00000000000000000000e-01) (6, 5, 5.00000000000000000000e-01) (6, 5, 5.00000000000000000000e-01) (6, 5, 5.00000000000000000000e-01) (6, 5, 5.00000000000000000000e-01) (6, 5, 5.00000000000000000000e-01) (6, 5, 5.00000000000000000000e-01) (6, 5, 5.00000000000000000000e-01) (6, 5, 5.00000000000000000000e-01) (6, 5, 5.00000000000000000000e-01) (6, 5, 5.00000000000000000000e-01) (6, 5, 5.00000000000000000000e-01) (6, 5, 5.00000000000000000000e-01) (6, 5, 5.00000000000000000000e-01) (6, 5, 5.00000000000000000000e-01) (6, 5, 5.00000000000000000000e-01) (6, 5, 5.00000000000000000000e-01) (6, 5, 5.00000000000000000000e-01) (6, 5, 5.00000000000000000000e-01) (6, 5, 5.00000000000000000000e-01) (6, 5, 5.00000000000000000000e-01) (6, 5, 5.00000000000000000000e-01) (6, 5, 5.00000000000000000000e-01) (6, 5, 5.00000000000000000000e-01) (6, 5, 5.00000000000000000000e-01) (6, 5, 5.00000000000000000000e-01) (6, 5, 5.00000000000000000000e-01) (6, 5, 5.00000000000000000000e-01) (6, 5, 5.00000000000000000000e-01) (6, 5, 5.00000000000000000000e-01) (6, 5, 5.00000000000000000000e-01) (6, 5, 5.00000000000000000000e-01) (6, 5, 5.00000000000000000000e-01) (6, 5, 5.00000000000000000000e-01) (6, 5, 5.00000000000000000000e-01) (6, 5, 5.00000000000000000000e-01) (6, 5, 5.00000000000000000000e-01) (6, 5, 5.00000000000000000000e-01) (6, 5, 5.00000000000000000000e-01) (6, 5, 5.00000000000000000000e-01) (6, 5, 5.00000000000000000000e-01) (6, 5, 5.00000000000000000000e-01) (6, 5, 5.00000000000000000000e-01) (6, 5, 5.00000000000000000000e-01) (6, 5, 5.00000000000000000000e-01) (6, 5, 5.00000000000000000000e-01) (6, 5, 5.00000000000000000000e-01) (6, 5, 5.00000000000000000000e-01) (6, 5, 5.00000000000000000000e-01) (6, 5, 5.00000000000000000000e-01) (6, 5, 5.00000000000000000000e-01) (6, 5, 5.00000000000000000000e-01) (6, 5, 5.00000000000000000000e-01) (6, 5, 5.00000000000000000000e-01) (6, 5, 5.00000000000000000000e-01) (6, 5, 5.00000000000000000000e-01) (6, 5, 5.00000000000000000000e-01) (6, 5, 5.00000000000000000000e-01) (6, 5, 5.00000000000000000000e-01) (6, 5, 5.00000000000000000000e-01) (6, 5, 5.00000000000000000000e-01) (6, 5, 5.00000000000000000000e-01) (6, 5, 5.00000000000000000000e-01) (6, 5, 5.00000000000000000000e-01) (6, 5, 5.00000000000000000000e-01) (6, 5, 5.00000000000000000000e-01) (6, 5, 5.00000000000000000000e-01) (6, 5, 5.00000000000000000000e-01) (6, 5, 5.00000000000000000000e-01) (6, 5, 5.00000000000000000000e-01) (6, 5, 5.00000000000000000000e-01) (6, 5, 5.00000000000000000000e-01) (6, 5, 5.00000000000000000000e-01) (6, 5, 5.00000000000000000000e-01) (6, 5, 5.00000000000000000000e-01) (6, 5, 5.00000000000000000000e-01) (6, 5, 5.00000000000000000000e-01) (6, 5, 5.00000000000000000000e-01) (6, 5, 5.00000000000000000000e-01) (6, 5, 5.00000000000000000000e-01) (6, 5, 5.00000000000000000000e-01) (6, 5, 5.00000000000000000000e-01) (6, 5, 5.00000000000000000000e-01) (6, 5, 5.00000000000000000000e-01) (6, 5, 5.00000000000000000000e-01) (6, 5, 5.00000000000000000000e-01) (0, 5, 0.00000000000000000000e+00) (101, 5, 5.00000000000000000000e-01) (0, 5, 0.00000000000000000000e+00) 
connections (connected_to_neuron, weight)=(0, 1.49350512695312500000e+03) (1, 7.57389485836029052734e-01) (2, 7.27368772029876708984e-01) (3, 5.59468805789947509766e-01) (4, 1.09574520587921142578e+00) (5, 5.09324491024017333984e-01) (0, -4.10718059539794921875e+00) (1, -1.60244703292846679688e-01) (2, -2.43107289075851440430e-01) (3, -6.06223158538341522217e-02) (4, -1.00511528551578521729e-01) (5, -1.85609877109527587891e-01) (0, -1.93306732177734375000e+02) (1, 1.69373404979705810547e+00) (2, -4.89278733730316162109e-02) (3, 8.68863284587860107422e-01) (4, -8.04950237274169921875e-01) (5, -6.98537081480026245117e-02) (0, 1.49350512695312500000e+03) (1, 1.79286110401153564453e+00) (2, 3.59284400939941406250e-01) (3, 5.98944365978240966797e-01) (4, 5.97152888774871826172e-01) (5, 3.90838354825973510742e-01) (0, -1.40824722290039062500e+02) (1, 1.50299146771430969238e-01) (2, 2.01595667749643325806e-02) (3, 3.07856619358062744141e-01) (4, -3.70368778705596923828e-01) (5, -9.59146842360496520996e-02) (0, 1.30276956558227539062e+01) (1, 6.48835241794586181641e-01) (2, 1.20458453893661499023e-01) (3, 3.55551451444625854492e-01) (4, -5.19858479499816894531e-01) (5, 2.22477152943611145020e-01) (0, 7.08059120178222656250e+00) (1, 7.67355382442474365234e-01) (2, -2.75949716567993164062e-01) (3, -2.24377214908599853516e-01) (4, -1.14293023943901062012e-01) (5, -7.99189582467079162598e-02) (0, -2.38809112548828125000e+02) (1, 1.75899052619934082031e+00) (2, -2.80879698693752288818e-02) (3, 1.24056971073150634766e+00) (4, -1.02607119083404541016e+00) (5, -1.74652785062789916992e-02) (0, 1.49350512695312500000e+03) (1, 1.81176531314849853516e+00) (2, 3.84887725114822387695e-01) (3, 5.89899301528930664062e-01) (4, 5.37881255149841308594e-01) (5, 1.88509893417358398438e+00) (0, -2.94719290733337402344e+00) (1, -1.11033231019973754883e-01) (2, -9.97696146368980407715e-02) (3, -3.07063106447458267212e-02) (4, -1.96403354406356811523e-01) (5, -5.56342937052249908447e-02) (0, 1.39738140106201171875e+01) (1, 5.73203921318054199219e-01) (2, 1.87713086605072021484e-01) (3, 3.36609303951263427734e-01) (4, -5.36395609378814697266e-01) (5, 1.12306959927082061768e-01) (0, -1.57327346801757812500e+02) (1, 9.11804556846618652344e-01) (2, 6.26526623964309692383e-02) (3, 5.53467154502868652344e-01) (4, -5.88517546653747558594e-01) (5, -9.24341157078742980957e-02) (0, 1.24709806442260742188e+01) (1, 6.42926514148712158203e-01) (2, 1.67427197098731994629e-01) (3, 3.49437057971954345703e-01) (4, -5.13583600521087646484e-01) (5, 2.05793574452400207520e-01) (0, 1.48949926757812500000e+03) (1, 4.17573738098144531250e+00) (2, 3.32395941019058227539e-01) (3, 6.12195312976837158203e-01) (4, 6.27333045005798339844e-01) (5, 3.79460036754608154297e-01) (0, 1.06520433425903320312e+01) (1, 1.25235462188720703125e+00) (2, 1.53543919324874877930e-01) (3, 3.49176645278930664062e-01) (4, -5.51541268825531005859e-01) (5, 2.56760388612747192383e-01) (0, -2.56846338510513305664e-01) (1, 3.77829134464263916016e-01) (2, 8.37067604064941406250e-01) (3, 3.74423474073410034180e-01) (4, 1.32107228040695190430e-01) (5, 1.30686926841735839844e+00) (0, 7.02280580997467041016e-01) (1, 3.39818775653839111328e-01) (2, -1.50427579879760742188e-01) (3, -2.31394991278648376465e-01) (4, -1.09894827008247375488e-01) (5, -2.52977877855300903320e-01) (0, 1.49350512695312500000e+03) (1, 8.73819708824157714844e-01) (2, 1.99385762214660644531e-01) (3, 6.22007250785827636719e-01) (4, -4.63843822479248046875e-01) (5, -8.25468301773071289062e-01) (0, -3.37884704589843750000e+02) (1, 1.41830968856811523438e+00) (2, -1.12602204084396362305e-01) (3, 9.26535189151763916016e-01) (4, -7.58806586265563964844e-01) (5, 2.39318720996379852295e-02) (0, 1.49350512695312500000e+03) (1, 1.00201809406280517578e+00) (2, 8.59711349010467529297e-01) (3, 4.98314857482910156250e-01) (4, 5.86720049381256103516e-01) (5, 5.87400913238525390625e-01) (0, 1.25122261047363281250e+01) (1, 1.11939823627471923828e+00) (2, -1.62821620702743530273e-01) (3, -1.29279315471649169922e-01) (4, -2.16161474585533142090e-01) (5, -1.91713929176330566406e-01) (0, 1.48949926757812500000e+03) (1, 9.50465798377990722656e-01) (2, 7.42394387722015380859e-01) (3, 5.56986272335052490234e-01) (4, 6.29484295845031738281e-01) (5, 6.16731226444244384766e-01) (0, 1.07162768554687500000e+03) (1, 6.01134777069091796875e+00) (2, -6.61310374736785888672e-01) (3, 5.89380383491516113281e-01) (4, -1.33877706527709960938e+00) (5, -9.08306598663330078125e-01) (0, -4.85471487045288085938e+00) (1, 5.57019701227545738220e-03) (2, -9.21532735228538513184e-02) (3, -1.06339238584041595459e-01) (4, -1.32843613624572753906e-01) (5, -2.01538681983947753906e-01) (0, 1.49350512695312500000e+03) (1, 1.76501846313476562500e+00) (2, 5.68024933338165283203e-01) (3, 6.47511482238769531250e-01) (4, 5.92524468898773193359e-01) (5, 2.97634273767471313477e-01) (0, -1.44360618591308593750e+01) (1, 2.99169808626174926758e-01) (2, 4.66909468173980712891e-01) (3, 2.93881297111511230469e-01) (4, 6.35456442832946777344e-02) (5, 4.46400463581085205078e-01) (0, 6.76241683959960937500e+00) (1, 3.45549881458282470703e-01) (2, -1.85708552598953247070e-01) (3, -2.09946364164352416992e-01) (4, -9.54588577151298522949e-02) (5, -1.29111543297767639160e-01) (0, 1.49350512695312500000e+03) (1, 4.20746850967407226562e+00) (2, 3.08426111936569213867e-01) (3, 6.43112778663635253906e-01) (4, 5.40406703948974609375e-01) (5, 1.97962939739227294922e+00) (0, -1.56948671340942382812e+01) (1, 4.71881508827209472656e-01) (2, 2.58510619401931762695e-01) (3, 3.09026807546615600586e-01) (4, -2.75380253791809082031e-01) (5, 2.26906701922416687012e-01) (0, -2.84605827331542968750e+01) (1, 6.17292463779449462891e-01) (2, 7.48743832111358642578e-01) (3, 3.53618115186691284180e-01) (4, 1.57154232263565063477e-01) (5, 2.15211200714111328125e+00) (0, 7.00835371017456054688e+00) (1, 5.00353932380676269531e-01) (2, -8.56468901038169860840e-02) (3, -1.52866005897521972656e-01) (4, -1.84359699487686157227e-01) (5, -1.64129555225372314453e-01) (0, 1.67280845642089843750e+01) (1, 4.57794755697250366211e-01) (2, 2.09937810897827148438e-01) (3, 2.98239737749099731445e-01) (4, -5.42930841445922851562e-01) (5, 2.27664634585380554199e-01) (0, 1.22446756362915039062e+01) (1, 7.38457918167114257812e-01) (2, -1.72430902719497680664e-01) (3, -2.06241980195045471191e-01) (4, -1.45621582865715026855e-01) (5, -9.57337692379951477051e-02) (0, -1.57297744750976562500e+02) (1, 1.88377276062965393066e-01) (2, 8.34743306040763854980e-02) (3, 5.46134650707244873047e-01) (4, -4.65781122446060180664e-01) (5, -2.90063861757516860962e-02) (0, -1.64345962524414062500e+02) (1, 3.57665926218032836914e-01) (2, -1.34046180173754692078e-02) (3, 5.67495226860046386719e-01) (4, -4.58951264619827270508e-01) (5, -7.99147784709930419922e-02) (0, -1.40824905395507812500e+02) (1, 8.48932936787605285645e-02) (2, 8.85627046227455139160e-03) (3, 3.10925215482711791992e-01) (4, -3.89125376939773559570e-01) (5, -9.23107191920280456543e-02) (0, -2.23113922119140625000e+02) (1, 1.21895170211791992188e+00) (2, 8.70432928204536437988e-02) (3, 7.84069120883941650391e-01) (4, -7.14284241199493408203e-01) (5, -5.63587658107280731201e-02) (0, -1.58198684692382812500e+02) (1, 5.26276683807373046875e+00) (2, -1.13221690058708190918e-01) (3, 6.92905008792877197266e-01) (4, -1.73441433906555175781e+00) (5, -1.22397141531109809875e-02) (0, -2.24146530151367187500e+02) (1, 1.47278547286987304688e+00) (2, 1.93136498332023620605e-01) (3, 7.88820505142211914062e-01) (4, -8.20326864719390869141e-01) (5, -9.96372699737548828125e-02) (0, -3.79815053939819335938e+00) (1, -2.33646295964717864990e-02) (2, -2.75562256574630737305e-01) (3, -1.75256669521331787109e-01) (4, -9.36327800154685974121e-02) (5, -1.56618207693099975586e-01) (0, 1.48949926757812500000e+03) (1, 1.74712121486663818359e+00) (2, 5.66424190998077392578e-01) (3, 5.34194409847259521484e-01) (4, 5.13343036174774169922e-01) (5, 5.19144833087921142578e-01) (0, -2.35102401733398437500e+02) (1, 2.63311433792114257812e+00) (2, -3.79180312156677246094e-02) (3, 8.09705913066864013672e-01) (4, -1.07898712158203125000e+00) (5, -9.49184894561767578125e-02) (0, -1.46755538940429687500e+02) (1, 3.42899829149246215820e-01) (2, -6.51768445968627929688e-02) (3, 4.24723684787750244141e-01) (4, -4.26568537950515747070e-01) (5, -4.49925363063812255859e-02) (0, -2.60219841003417968750e+01) (1, 6.46156966686248779297e-01) (2, 7.06784963607788085938e-01) (3, 4.22752290964126586914e-01) (4, 1.28878086805343627930e-01) (5, 2.13887596130371093750e+00) (0, -1.69683700561523437500e+02) (1, 2.95423507690429687500e+00) (2, -4.80229780077934265137e-02) (3, 7.58657097816467285156e-01) (4, -1.13223791122436523438e+00) (5, -4.67035435140132904053e-02) (0, -1.93364776611328125000e+02) (1, 1.64948427677154541016e+00) (2, -5.20152337849140167236e-02) (3, 8.16056311130523681641e-01) (4, -8.61227571964263916016e-01) (5, -3.51348705589771270752e-02) (0, -4.12634468078613281250e+00) (1, -1.80724114179611206055e-01) (2, -2.40247055888175964355e-01) (3, -8.10737833380699157715e-02) (4, -1.06267586350440979004e-01) (5, -1.61990448832511901855e-01) (0, -1.71125091552734375000e+02) (1, 5.56686341762542724609e-01) (2, 7.41791501641273498535e-02) (3, 5.73467314243316650391e-01) (4, -5.38148403167724609375e-01) (5, 1.37894079089164733887e-02) (0, -1.40662521362304687500e+02) (1, 2.76954084634780883789e-01) (2, -6.53821527957916259766e-02) (3, 3.62542718648910522461e-01) (4, -3.85830998420715332031e-01) (5, -1.06655657291412353516e-01) (0, 1.49602563476562500000e+03) (1, 1.64247429370880126953e+00) (2, 6.51292264461517333984e-01) (3, 5.24070322513580322266e-01) (4, 4.87249583005905151367e-01) (5, 5.59672296047210693359e-01) (0, 1.48949926757812500000e+03) (1, 1.00092530250549316406e+00) (2, 5.14553368091583251953e-01) (3, 4.61306422948837280273e-01) (4, 7.35690832138061523438e-01) (5, 5.76603174209594726562e-01) (0, -2.38794677734375000000e+02) (1, 1.79363274574279785156e+00) (2, -1.07165733352303504944e-02) (3, 1.21556115150451660156e+00) (4, -1.01462972164154052734e+00) (5, -5.50320968031883239746e-02) (0, 1.30230522155761718750e+01) (1, 5.03690481185913085938e-01) (2, 1.40544146299362182617e-01) (3, 3.69913548231124877930e-01) (4, -5.44859409332275390625e-01) (5, 1.95988014340400695801e-01) (0, 1.49350512695312500000e+03) (1, 4.23374795913696289062e+00) (2, 2.89341807365417480469e-01) (3, 5.21774530410766601562e-01) (4, 6.56884074211120605469e-01) (5, 3.00225019454956054688e-01) (0, -4.05875968933105468750e+00) (1, -3.83248366415500640869e-02) (2, -2.45180398225784301758e-01) (3, -1.28022566437721252441e-01) (4, -8.94250944256782531738e-02) (5, -2.29306682944297790527e-01) (0, -3.73140239715576171875e+00) (1, -6.42820000648498535156e-02) (2, -1.75628453493118286133e-01) (3, -4.04251925647258758545e-02) (4, -1.52896136045455932617e-01) (5, -2.12544769048690795898e-01) (0, -1.71305503845214843750e+01) (1, -3.18464726209640502930e-01) (2, -2.14735753834247589111e-02) (3, -1.28920122981071472168e-01) (4, 4.14755284786224365234e-01) (5, 7.08347768522799015045e-04) (0, -1.23223136901855468750e+02) (1, 3.34647130966186523438e+00) (2, 4.71918046474456787109e-01) (3, 6.23538911342620849609e-01) (4, 4.16517138481140136719e-01) (5, 4.44180309772491455078e-01) (0, 8.37273559570312500000e+02) (1, 9.54632377624511718750e+00) (2, -2.41228914260864257812e+00) (3, 2.80910342931747436523e-01) (4, -8.75541865825653076172e-01) (5, -3.46841526031494140625e+00) (0, -8.37840959429740905762e-02) (1, 4.57121282815933227539e-01) (2, -1.26840502023696899414e-01) (3, -2.45205223560333251953e-01) (4, -1.70936003327369689941e-01) (5, -1.18404038250446319580e-01) (0, -1.93380157470703125000e+02) (1, 1.75920045375823974609e+00) (2, -4.82629947364330291748e-02) (3, 7.64758527278900146484e-01) (4, -7.73593187332153320312e-01) (5, -1.33180662989616394043e-01) (0, 1.47797298431396484375e+01) (1, 7.58558630943298339844e-01) (2, -2.21029430627822875977e-01) (3, -1.55298069119453430176e-01) (4, -9.54241156578063964844e-02) (5, -2.11898520588874816895e-01) (0, 1.48949926757812500000e+03) (1, 1.82217156887054443359e+00) (2, 4.48950469493865966797e-01) (3, 6.40685796737670898438e-01) (4, 5.73372066020965576172e-01) (5, 3.59644711017608642578e-01) (0, -4.15023326873779296875e+00) (1, -1.60968899726867675781e-01) (2, -2.01673179864883422852e-01) (3, -1.04117684066295623779e-01) (4, -1.13658346235752105713e-01) (5, -5.96729591488838195801e-02) (0, -1.78605365753173828125e+01) (1, 5.69211184978485107422e-01) (2, 7.93555915355682373047e-01) (3, 3.69689792394638061523e-01) (4, 1.17321707308292388916e-01) (5, 1.32658040523529052734e+00) (0, 1.30513515472412109375e+01) (1, 6.43044173717498779297e-01) (2, 2.19772532582283020020e-01) (3, 3.28628420829772949219e-01) (4, -5.48144042491912841797e-01) (5, 1.12567596137523651123e-01) (0, -1.61674327850341796875e+01) (1, 6.73981606960296630859e-01) (2, 4.87703770399093627930e-01) (3, 4.28893536329269409180e-01) (4, 1.55539035797119140625e-01) (5, 2.18498110771179199219e+00) (0, -2.41795921325683593750e+01) (1, 7.81588435173034667969e-01) (2, 5.31452775001525878906e-01) (3, 3.74485522508621215820e-01) (4, 1.49882763624191284180e-01) (5, 1.00495731830596923828e+00) (0, -1.91741119384765625000e+02) (1, 1.01957648992538452148e-01) (2, -6.80603906512260437012e-02) (3, 7.37986445426940917969e-01) (4, -4.63579773902893066406e-01) (5, -1.03230535984039306641e-01) (0, 8.52391815185546875000e+00) (1, 1.12037372589111328125e+00) (2, -1.17675334215164184570e-01) (3, -2.29394882917404174805e-01) (4, -2.06552803516387939453e-01) (5, -1.61701470613479614258e-01) (0, 1.49350512695312500000e+03) (1, 1.05494999885559082031e+00) (2, 8.33367049694061279297e-01) (3, 5.32501757144927978516e-01) (4, 6.11360609531402587891e-01) (5, 5.15666246414184570312e-01) (0, 1.49350512695312500000e+03) (1, 1.74560356140136718750e+00) (2, 7.34459221363067626953e-01) (3, 4.52397108078002929688e-01) (4, 4.95481193065643310547e-01) (5, 5.95900595188140869141e-01) (0, -1.57929061889648437500e+02) (1, 5.08760499954223632812e+00) (2, -3.44965234398841857910e-02) (3, 6.98940098285675048828e-01) (4, -1.71814572811126708984e+00) (5, -6.44165426492691040039e-02) (0, -2.88384151458740234375e+01) (1, -1.53465762734413146973e-01) (2, 5.67048676311969757080e-02) (3, -9.34214144945144653320e-02) (4, 1.12025020644068717957e-02) (5, -1.16130411624908447266e-01) (0, 6.96090888977050781250e+00) (1, 7.47120559215545654297e-01) (2, -2.80077040195465087891e-01) (3, -2.20275223255157470703e-01) (4, -9.98949855566024780273e-02) (5, -1.88124775886535644531e-01) (0, -5.56165814399719238281e-01) (1, 4.59884703159332275391e-01) (2, 6.50042295455932617188e-01) (3, 3.03477644920349121094e-01) (4, 1.52653455734252929688e-01) (5, 1.03833508491516113281e+00) (0, -4.58108520507812500000e+00) (1, 4.41565722227096557617e-01) (2, 5.00554144382476806641e-01) (3, 2.68026173114776611328e-01) (4, 9.50771272182464599609e-02) (5, 9.21246588230133056641e-01) (0, 1.22041234970092773438e+01) (1, 4.47625964879989624023e-01) (2, -9.60651338100433349609e-02) (3, -2.05192282795906066895e-01) (4, -1.16288997232913970947e-01) (5, -7.59483650326728820801e-02) (0, 1.48949926757812500000e+03) (1, 1.91129457950592041016e+00) (2, 5.66475272178649902344e-01) (3, 5.47171771526336669922e-01) (4, 5.12991130352020263672e-01) (5, 6.19399189949035644531e-01) (0, -2.78459358215332031250e+01) (1, 4.14032518863677978516e-01) (2, 4.63949769735336303711e-01) (3, 3.87091606855392456055e-01) (4, 8.84876847267150878906e-02) (5, 1.05700278282165527344e+00) (0, -2.88414478302001953125e+01) (1, -1.18070952594280242920e-01) (2, -1.28098636865615844727e-01) (3, -1.02660931646823883057e-01) (4, 1.40838269144296646118e-02) (5, 4.78603318333625793457e-02) (0, -1.14343523979187011719e+00) (1, 5.24357855319976806641e-01) (2, 7.62106597423553466797e-01) (3, 2.98660516738891601562e-01) (4, 1.45368143916130065918e-01) (5, 1.89471352100372314453e+00) (0, 1.48949926757812500000e+03) (1, 4.63481807708740234375e+00) (2, 3.53056222200393676758e-01) (3, 5.81000566482543945312e-01) (4, 6.04623973369598388672e-01) (5, 3.00216972827911376953e-01) (0, 1.30907226562500000000e+03) (1, 5.43204307556152343750e+00) (2, 1.87896594405174255371e-01) (3, 5.93673884868621826172e-01) (4, 6.26003146171569824219e-01) (5, 1.44839629530906677246e-01) (0, 1.49350512695312500000e+03) (1, 1.80975890159606933594e+00) (2, 6.85860693454742431641e-01) (3, 4.54557418823242187500e-01) (4, 4.83649998903274536133e-01) (5, 5.21789431571960449219e-01) (0, 1.49350512695312500000e+03) (1, 1.74296164512634277344e+00) (2, 7.12134242057800292969e-01) (3, 5.58797776699066162109e-01) (4, 5.40338516235351562500e-01) (5, 4.97650206089019775391e-01) (0, 4.32279288768768310547e-01) (1, 5.67391514778137207031e-01) (2, 7.20776617527008056641e-01) (3, 2.81291812658309936523e-01) (4, 1.69565781950950622559e-01) (5, 2.25215077400207519531e+00) (0, 1.49350512695312500000e+03) (1, 1.87776815891265869141e+00) (2, 4.29549008607864379883e-01) (3, 5.66125929355621337891e-01) (4, 5.70953130722045898438e-01) (5, 4.74321812391281127930e-01) (0, -1.63915557861328125000e+01) (1, 5.57696878910064697266e-01) (2, 4.74207669496536254883e-01) (3, 4.10090684890747070312e-01) (4, 1.34994864463806152344e-01) (5, 2.21483206748962402344e+00) (0, 1.49350512695312500000e+03) (1, 1.04787516593933105469e+00) (2, 8.00803422927856445312e-01) (3, 5.43994128704071044922e-01) (4, 6.81940197944641113281e-01) (5, 5.58438181877136230469e-01) (0, 8.77772235870361328125e+00) (1, 1.12172365188598632812e+00) (2, -2.00573429465293884277e-01) (3, -1.87998205423355102539e-01) (4, -1.96290642023086547852e-01) (5, -1.50390952825546264648e-01) (0, 1.49350512695312500000e+03) (1, 1.92033565044403076172e+00) (2, 5.88687002658843994141e-01) (3, 5.02468883991241455078e-01) (4, 4.84376817941665649414e-01) (5, 5.52476346492767333984e-01) (0, -2.80076980590820312500e+01) (1, 6.84877097606658935547e-01) (2, 6.52115821838378906250e-01) (3, 3.58341753482818603516e-01) (4, 1.59593403339385986328e-01) (5, 2.07921266555786132812e+00) (0, -2.38102722167968750000e+02) (1, 9.44977760314941406250e-01) (2, 1.28998551517724990845e-02) (3, 9.14214134216308593750e-01) (4, -6.98614835739135742188e-01) (5, -4.52051311731338500977e-02) (0, -3.92610192298889160156e+00) (1, -1.43441751599311828613e-01) (2, -1.25226393342018127441e-01) (3, -6.87454715371131896973e-02) (4, -1.46841108798980712891e-01) (5, -1.99781388044357299805e-01) (0, -2.38139434814453125000e+02) (1, 8.99385452270507812500e-01) (2, -1.25591129064559936523e-01) (3, 9.19774591922760009766e-01) (4, -6.26165509223937988281e-01) (5, -3.20757031440734863281e-02) (0, -2.42974853515625000000e+02) (1, 7.24076628684997558594e-01) (2, -2.81101046130061149597e-03) (3, 1.18227195739746093750e+00) (4, -7.07471430301666259766e-01) (5, -5.53096160292625427246e-02) (0, -1.71279907226562500000e+01) (1, 4.35719221830368041992e-01) (2, 5.97193896770477294922e-01) (3, 3.13021957874298095703e-01) (4, 1.61788821220397949219e-01) (5, 1.23193216323852539062e+00) (0, 6.80998373031616210938e+00) (1, 3.25195938348770141602e-01) (2, -2.00711682438850402832e-01) (3, -1.85355663299560546875e-01) (4, -1.08235619962215423584e-01) (5, -1.20413862168788909912e-01) (0, 1.25269622802734375000e+01) (1, 1.02162158489227294922e+00) (2, -8.25970247387886047363e-02) (3, -1.50315105915069580078e-01) (4, -2.36364126205444335938e-01) (5, -1.27027243375778198242e-01) (6, -1.74866959452629089355e-01) (7, 5.70798814296722412109e-01) (8, -1.42936944961547851562e-01) (9, -1.69959083199501037598e-01) (10, -1.44195511937141418457e-01) (11, 6.22016429901123046875e-01) (12, 4.71039742231369018555e-01) (13, -1.28808856010437011719e-01) (14, -9.90473851561546325684e-02) (15, 5.77554285526275634766e-01) (16, 1.08750534057617187500e+00) (17, -1.00360549986362457275e-01) (18, 6.65623843669891357422e-01) (19, -1.07160888612270355225e-01) (20, -9.29503887891769409180e-03) (21, 4.25357013940811157227e-01) (22, 4.70708549022674560547e-01) (23, -1.74986690282821655273e-01) (24, -1.38174310326576232910e-01) (25, -1.48358896374702453613e-01) (26, 3.78156572580337524414e-01) (27, -1.07396505773067474365e-01) (28, -3.78948748111724853516e-01) (29, 4.72222417593002319336e-01) (30, -1.54361501336097717285e-01) (31, 4.01778221130371093750e-01) (32, 5.52661538124084472656e-01) (33, -1.57403096556663513184e-01) (34, 4.96271908283233642578e-01) (35, 4.28162932395935058594e-01) (36, 5.34953296184539794922e-01) (37, 5.56816196441650390625e+00) (38, 4.78234380483627319336e-01) (39, -7.58333727717399597168e-02) (40, -1.42244905233383178711e-01) (41, -1.10983975231647491455e-01) (42, -1.16565443575382232666e-01) (43, -5.98743379116058349609e-01) (44, -9.10990387201309204102e-02) (45, 5.06365537643432617188e-01) (46, -1.59778341650962829590e-01) (47, -1.13010376691818237305e-01) (48, -6.79925158619880676270e-02) (49, 3.93156707286834716797e-01) (50, -4.44597601890563964844e-01) (51, -1.13020062446594238281e-01) (52, 5.25001049041748046875e-01) (53, -1.20380140841007232666e-01) (54, -1.49109646677970886230e-01) (55, -1.40057191252708435059e-01) (56, -1.08230225741863250732e-01) (57, -1.47240221500396728516e-01) (58, 7.36119508743286132812e-01) (59, -1.26986354589462280273e-01) (60, 5.09412586688995361328e-01) (61, 5.19197106361389160156e-01) (62, -8.88695269823074340820e-02) (63, 4.41341370344161987305e-01) (64, -4.60498422384262084961e-01) (65, 5.40273368358612060547e-01) (66, -1.05510599911212921143e-01) (67, 2.75618731975555419922e-02) (68, -1.07478760182857513428e-01) (69, 5.69425523281097412109e-01) (70, 3.94894570112228393555e-01) (71, 6.20566248893737792969e-01) (72, 4.23439174890518188477e-01) (73, 4.41623628139495849609e-01) (74, -1.45325019955635070801e-01) (75, 4.66604858636856079102e-01) (76, -9.82545837759971618652e-02) (77, -1.45211800932884216309e-01) (78, -2.54120022058486938477e-01) (79, -1.17962867021560668945e-01) (80, 5.01922011375427246094e-01) (81, 4.15252625942230224609e-01) (82, 4.05309140682220458984e-01) (83, 5.44604003429412841797e-01) (84, -1.06328032910823822021e-01) (85, 4.19890522956848144531e-01) (86, -1.18633702397346496582e-01) (87, 4.30315852165222167969e-01) (88, -1.19695998728275299072e-01) (89, -1.37895837426185607910e-01) (90, -1.79878070950508117676e-01) (91, -8.75368043780326843262e-02) (92, 4.67312365770339965820e-01) (93, -1.10724329948425292969e-01) (94, 3.99946182966232299805e-01) (95, -1.33097425103187561035e-01) (96, 4.88264888525009155273e-01) (97, -1.11868590116500854492e-01) (98, 4.60719883441925048828e-01) (99, -1.50502324104309082031e-01) (100, 5.37104904651641845703e-01) (101, -1.16041429340839385986e-01) (102, -1.61431565880775451660e-01) (103, 4.82842653989791870117e-01) (104, 4.99098181724548339844e-01) (105, 3.97692739963531494141e-01) (106, 3.09373497962951660156e-01) 
