FANN_FLO_2.1
num_layers=3
learning_rate=0.700000
connection_rate=1.000000
network_type=0
learning_momentum=0.000000
training_algorithm=2
train_error_function=1
train_stop_function=0
cascade_output_change_fraction=0.010000
quickprop_decay=-0.000100
quickprop_mu=1.750000
rprop_increase_factor=1.200000
rprop_decrease_factor=0.500000
rprop_delta_min=0.000000
rprop_delta_max=50.000000
rprop_delta_zero=0.100000
cascade_output_stagnation_epochs=12
cascade_candidate_change_fraction=0.010000
cascade_candidate_stagnation_epochs=12
cascade_max_out_epochs=150
cascade_max_cand_epochs=150
cascade_num_candidate_groups=2
bit_fail_limit=3.49999994039535522461e-01
cascade_candidate_limit=1.00000000000000000000e+03
cascade_weight_multiplier=4.00000005960464477539e-01
cascade_activation_functions_count=10
cascade_activation_functions=3 5 7 8 10 11 14 15 16 17 
cascade_activation_steepnesses_count=4
cascade_activation_steepnesses=2.50000000000000000000e-01 5.00000000000000000000e-01 7.50000000000000000000e-01 1.00000000000000000000e+00 
layer_sizes=6 101 2 
scale_included=0
neurons (num_inputs, activation_function, activation_steepness)=(0, 0, 0.00000000000000000000e+00) (0, 0, 0.00000000000000000000e+00) (0, 0, 0.00000000000000000000e+00) (0, 0, 0.00000000000000000000e+00) (0, 0, 0.00000000000000000000e+00) (0, 0, 0.00000000000000000000e+00) (6, 5, 5.00000000000000000000e-01) (6, 5, 5.00000000000000000000e-01) (6, 5, 5.00000000000000000000e-01) (6, 5, 5.00000000000000000000e-01) (6, 5, 5.00000000000000000000e-01) (6, 5, 5.00000000000000000000e-01) (6, 5, 5.00000000000000000000e-01) (6, 5, 5.00000000000000000000e-01) (6, 5, 5.00000000000000000000e-01) (6, 5, 5.00000000000000000000e-01) (6, 5, 5.00000000000000000000e-01) (6, 5, 5.00000000000000000000e-01) (6, 5, 5.00000000000000000000e-01) (6, 5, 5.00000000000000000000e-01) (6, 5, 5.00000000000000000000e-01) (6, 5, 5.00000000000000000000e-01) (6, 5, 5.00000000000000000000e-01) (6, 5, 5.00000000000000000000e-01) (6, 5, 5.00000000000000000000e-01) (6, 5, 5.00000000000000000000e-01) (6, 5, 5.00000000000000000000e-01) (6, 5, 5.00000000000000000000e-01) (6, 5, 5.00000000000000000000e-01) (6, 5, 5.00000000000000000000e-01) (6, 5, 5.00000000000000000000e-01) (6, 5, 5.00000000000000000000e-01) (6, 5, 5.00000000000000000000e-01) (6, 5, 5.00000000000000000000e-01) (6, 5, 5.00000000000000000000e-01) (6, 5, 5.00000000000000000000e-01) (6, 5, 5.00000000000000000000e-01) (6, 5, 5.00000000000000000000e-01) (6, 5, 5.00000000000000000000e-01) (6, 5, 5.00000000000000000000e-01) (6, 5, 5.00000000000000000000e-01) (6, 5, 5.00000000000000000000e-01) (6, 5, 5.00000000000000000000e-01) (6, 5, 5.00000000000000000000e-01) (6, 5, 5.00000000000000000000e-01) (6, 5, 5.00000000000000000000e-01) (6, 5, 5.00000000000000000000e-01) (6, 5, 5.00000000000000000000e-01) (6, 5, 5.00000000000000000000e-01) (6, 5, 5.00000000000000000000e-01) (6, 5, 5.00000000000000000000e-01) (6, 5, 5.00000000000000000000e-01) (6, 5, 5.00000000000000000000e-01) (6, 5, 5.00000000000000000000e-01) (6, 5, 5.00000000000000000000e-01) (6, 5, 5.00000000000000000000e-01) (6, 5, 5.00000000000000000000e-01) (6, 5, 5.00000000000000000000e-01) (6, 5, 5.00000000000000000000e-01) (6, 5, 5.00000000000000000000e-01) (6, 5, 5.00000000000000000000e-01) (6, 5, 5.00000000000000000000e-01) (6, 5, 5.00000000000000000000e-01) (6, 5, 5.00000000000000000000e-01) (6, 5, 5.00000000000000000000e-01) (6, 5, 5.00000000000000000000e-01) (6, 5, 5.00000000000000000000e-01) (6, 5, 5.00000000000000000000e-01) (6, 5, 5.00000000000000000000e-01) (6, 5, 5.00000000000000000000e-01) (6, 5, 5.00000000000000000000e-01) (6, 5, 5.00000000000000000000e-01) (6, 5, 5.00000000000000000000e-01) (6, 5, 5.00000000000000000000e-01) (6, 5, 5.00000000000000000000e-01) (6, 5, 5.00000000000000000000e-01) (6, 5, 5.00000000000000000000e-01) (6, 5, 5.00000000000000000000e-01) (6, 5, 5.00000000000000000000e-01) (6, 5, 5.00000000000000000000e-01) (6, 5, 5.00000000000000000000e-01) (6, 5, 5.00000000000000000000e-01) (6, 5, 5.00000000000000000000e-01) (6, 5, 5.00000000000000000000e-01) (6, 5, 5.00000000000000000000e-01) (6, 5, 5.00000000000000000000e-01) (6, 5, 5.00000000000000000000e-01) (6, 5, 5.00000000000000000000e-01) (6, 5, 5.00000000000000000000e-01) (6, 5, 5.00000000000000000000e-01) (6, 5, 5.00000000000000000000e-01) (6, 5, 5.00000000000000000000e-01) (6, 5, 5.00000000000000000000e-01) (6, 5, 5.00000000000000000000e-01) (6, 5, 5.00000000000000000000e-01) (6, 5, 5.00000000000000000000e-01) (6, 5, 5.00000000000000000000e-01) (6, 5, 5.00000000000000000000e-01) (6, 5, 5.00000000000000000000e-01) (6, 5, 5.00000000000000000000e-01) (6, 5, 5.00000000000000000000e-01) (6, 5, 5.00000000000000000000e-01) (6, 5, 5.00000000000000000000e-01) (6, 5, 5.00000000000000000000e-01) (6, 5, 5.00000000000000000000e-01) (6, 5, 5.00000000000000000000e-01) (0, 5, 0.00000000000000000000e+00) (101, 5, 5.00000000000000000000e-01) (0, 5, 0.00000000000000000000e+00) 
connections (connected_to_neuron, weight)=(0, -1.39995269775390625000e+01) (1, 4.47085380554199218750e-01) (2, 6.18644170463085174561e-02) (3, 9.61555182933807373047e-01) (4, 1.29454088211059570312e+00) (5, -4.33133423328399658203e-01) (0, 1.50000000000000000000e+03) (1, -2.61960983276367187500e+00) (2, -1.34245073795318603516e+00) (3, 9.64797258377075195312e-01) (4, 1.14945626258850097656e+00) (5, 6.24583244323730468750e-01) (0, -5.94760847091674804688e+00) (1, 1.22725531458854675293e-01) (2, -3.74192625284194946289e-01) (3, -4.86822694540023803711e-01) (4, 5.26499986648559570312e-01) (5, -2.53301888704299926758e-01) (0, 3.13037586212158203125e+00) (1, 4.81682479381561279297e-01) (2, -1.87579005956649780273e-01) (3, 6.48650348186492919922e-01) (4, -1.98993802070617675781e-01) (5, -4.60655122995376586914e-01) (0, -2.73369884490966796875e+00) (1, 1.41394209861755371094e+00) (2, 8.12057495117187500000e-01) (3, 1.96768438816070556641e+00) (4, 1.03455209732055664062e+00) (5, 2.11636975407600402832e-01) (0, 2.60552072525024414062e+00) (1, 7.24750459194183349609e-02) (2, 4.20976996421813964844e-01) (3, 5.57303354144096374512e-02) (4, -4.62684065103530883789e-01) (5, 2.37545549869537353516e-01) (0, -2.47561931610107421875e+01) (1, -1.83155953884124755859e-01) (2, 8.64514470100402832031e-01) (3, 1.30902016162872314453e+00) (4, 7.55858242511749267578e-01) (5, -4.36690777540206909180e-01) (0, -4.42529716491699218750e+01) (1, -4.22510087490081787109e-01) (2, 8.98363888263702392578e-01) (3, 1.86362758278846740723e-01) (4, 7.67253160476684570312e-01) (5, 6.28641843795776367188e-01) (0, 1.50000000000000000000e+03) (1, -2.32218027114868164062e-01) (2, -1.12091481685638427734e-01) (3, -7.01528415083885192871e-02) (4, 7.14369893074035644531e-01) (5, 1.33590686321258544922e+00) (0, 3.27764296531677246094e+00) (1, 4.50425326824188232422e-01) (2, -1.02919332683086395264e-01) (3, 8.48001003265380859375e-01) (4, -2.98327594995498657227e-01) (5, -3.52525800466537475586e-01) (0, -3.87907195091247558594e+00) (1, -7.88655430078506469727e-02) (2, -5.32306671142578125000e-01) (3, -3.79881203174591064453e-01) (4, 5.60736469924449920654e-02) (5, -3.86417508125305175781e-01) (0, 1.79214248657226562500e+01) (1, 1.11829131841659545898e-01) (2, -2.21284061670303344727e-01) (3, 3.56221139430999755859e-01) (4, -1.20092980563640594482e-01) (5, 2.01068222522735595703e-01) (0, 4.82660919427871704102e-01) (1, 4.66706514358520507812e-01) (2, 3.29602420330047607422e-01) (3, 6.32743656635284423828e-01) (4, 2.14642614126205444336e-01) (5, 1.72184944152832031250e-01) (0, -3.18024945259094238281e+00) (1, 1.49444556236267089844e+00) (2, 9.07425224781036376953e-01) (3, 2.00521683692932128906e+00) (4, 9.03326034545898437500e-01) (5, 3.41391563415527343750e-01) (0, -4.31222105026245117188e+00) (1, -7.11622983217239379883e-02) (2, -4.62159752845764160156e-01) (3, -6.10024571418762207031e-01) (4, 6.69385194778442382812e-02) (5, -3.92723083496093750000e-01) (0, -3.99375438690185546875e+00) (1, 1.48856496810913085938e+00) (2, 8.45339775085449218750e-01) (3, 2.05757999420166015625e+00) (4, 9.84886288642883300781e-01) (5, 1.19676053524017333984e+00) (0, 1.50000000000000000000e+03) (1, -6.62161970138549804688e+00) (2, -1.96028515696525573730e-01) (3, 4.01998579502105712891e-01) (4, 1.86408519744873046875e+00) (5, -4.32023823261260986328e-01) (0, -4.10109043121337890625e+00) (1, 1.34102153778076171875e+00) (2, 9.61674273014068603516e-01) (3, 2.04543137550354003906e+00) (4, 8.80471706390380859375e-01) (5, 1.29330527782440185547e+00) (0, -1.21439113616943359375e+01) (1, 9.43040847778320312500e+00) (2, 5.73356926441192626953e-01) (3, 2.04587054252624511719e+00) (4, 8.12251091003417968750e-01) (5, 1.25476205348968505859e+00) (0, 1.50000000000000000000e+03) (1, -1.96554481983184814453e-01) (2, -1.82350158691406250000e-01) (3, 1.75079107284545898438e-02) (4, 7.32176780700683593750e-01) (5, 7.79746055603027343750e-01) (0, -4.12457180023193359375e+00) (1, -1.73197346157394349575e-04) (2, -4.77780014276504516602e-01) (3, -5.66905975341796875000e-01) (4, 3.24745513498783111572e-02) (5, -3.38813304901123046875e-01) (0, -4.31304397583007812500e+01) (1, 4.09673929214477539062e+00) (2, 6.54857993125915527344e-01) (3, -1.34719204902648925781e+00) (4, 3.25939953327178955078e-01) (5, 5.99811136722564697266e-01) (0, 3.09683489799499511719e+00) (1, 5.47520935535430908203e-01) (2, -2.02242568135261535645e-01) (3, 6.14492833614349365234e-01) (4, -1.81747868657112121582e-01) (5, -4.46286559104919433594e-01) (0, 1.50000000000000000000e+03) (1, -2.35313057899475097656e+00) (2, 3.38279634714126586914e-01) (3, -3.61781835556030273438e-01) (4, 9.98675227165222167969e-01) (5, 2.61449337005615234375e-01) (0, 3.36803665161132812500e+01) (1, 6.21372997760772705078e-01) (2, 2.46784210205078125000e-01) (3, 1.88115608692169189453e+00) (4, 2.01221868395805358887e-01) (5, -6.74316436052322387695e-02) (0, 1.50000000000000000000e+03) (1, -5.07081627845764160156e-01) (2, -3.45086008310317993164e-01) (3, -1.03633105754852294922e+00) (4, 1.26076877117156982422e+00) (5, 7.07988858222961425781e-01) (0, -2.24160442352294921875e+01) (1, 7.03418374061584472656e-01) (2, 1.17422677576541900635e-01) (3, -6.41879081726074218750e-01) (4, 3.05436939001083374023e-01) (5, 7.40206062793731689453e-01) (0, 1.50000000000000000000e+03) (1, -2.63936430215835571289e-01) (2, -1.87798827886581420898e-01) (3, -9.79823052883148193359e-01) (4, 1.22481310367584228516e+00) (5, 1.67363524436950683594e-01) (0, 4.36822652816772460938e-01) (1, 4.10629719495773315430e-01) (2, 4.49083924293518066406e-01) (3, 7.53651916980743408203e-01) (4, 1.48096919059753417969e-01) (5, -4.87513303756713867188e-01) (0, -3.86673521995544433594e+00) (1, 1.37935400009155273438e+00) (2, 8.91036450862884521484e-01) (3, 2.04763460159301757812e+00) (4, 9.85077202320098876953e-01) (5, 1.11778128147125244141e+00) (0, -1.64739856719970703125e+01) (1, 2.15375840663909912109e-01) (2, 5.17394542694091796875e-01) (3, 1.17850482463836669922e+00) (4, 1.45297574996948242188e+00) (5, 1.12601971626281738281e+00) (0, 2.85474395751953125000e+00) (1, 5.29173165559768676758e-02) (2, 3.93531858921051025391e-01) (3, 1.86668671667575836182e-02) (4, -5.04738867282867431641e-01) (5, 2.47337460517883300781e-01) (0, -1.50000000000000000000e+03) (1, -2.45646882057189941406e+00) (2, 1.51635181903839111328e+00) (3, 7.38226056098937988281e-01) (4, 5.64618206024169921875e+00) (5, -1.13843359053134918213e-01) (0, 3.13750386238098144531e+00) (1, 9.30801868438720703125e-01) (2, 4.69007849693298339844e-01) (3, 6.27730488777160644531e-01) (4, -5.34467160701751708984e-01) (5, -5.15453517436981201172e-01) (0, -4.17473554611206054688e+00) (1, 1.45490276813507080078e+00) (2, 9.61098194122314453125e-01) (3, 1.62683725357055664062e+00) (4, 9.77423548698425292969e-01) (5, 1.13688993453979492188e+00) (0, -3.14740920066833496094e+00) (1, 1.48986494541168212891e+00) (2, 8.50190222263336181641e-01) (3, 1.95529711246490478516e+00) (4, 1.03523278236389160156e+00) (5, 2.93894082307815551758e-01) (0, -3.97974777221679687500e+00) (1, 1.35181164741516113281e+00) (2, 8.96610975265502929688e-01) (3, 2.12905001640319824219e+00) (4, 9.00448560714721679688e-01) (5, 1.34043729305267333984e+00) (0, -4.04197263717651367188e+00) (1, -1.24418877065181732178e-01) (2, -4.75078999996185302734e-01) (3, -5.18705308437347412109e-01) (4, 4.33267094194889068604e-02) (5, -3.85522097349166870117e-01) (0, -1.56510877609252929688e+01) (1, 1.03928422927856445312e+01) (2, 6.53008890151977539062e+00) (3, 1.58199858665466308594e+00) (4, -2.94866657257080078125e+00) (5, 1.17673432826995849609e+00) (0, -3.58842611312866210938e+00) (1, 1.37512409687042236328e+00) (2, 8.19960355758666992188e-01) (3, 2.04341483116149902344e+00) (4, 1.00592422485351562500e+00) (5, 1.19892883300781250000e+00) (0, -8.97117519378662109375e+00) (1, 7.03290045261383056641e-01) (2, 4.70109820365905761719e-01) (3, 6.73136174678802490234e-01) (4, 2.13783562183380126953e-01) (5, 6.97437524795532226562e-01) (0, -3.36041855812072753906e+00) (1, -3.45995575189590454102e-01) (2, -3.77660095691680908203e-01) (3, 2.26883262395858764648e-01) (4, -2.90249269455671310425e-02) (5, -3.08217287063598632812e-01) (0, -3.30765318870544433594e+00) (1, 1.30980622768402099609e+00) (2, 9.03209447860717773438e-01) (3, 2.00934004783630371094e+00) (4, 9.87010657787322998047e-01) (5, 6.17730438709259033203e-01) (0, -3.36306023597717285156e+00) (1, 1.40475857257843017578e+00) (2, 8.89491319656372070312e-01) (3, 2.14575362205505371094e+00) (4, 9.13159906864166259766e-01) (5, 6.69500231742858886719e-01) (0, -1.48653090000152587891e+00) (1, -9.42364811897277832031e-01) (2, -1.51496395468711853027e-01) (3, -5.68134225904941558838e-02) (4, 1.09589171409606933594e+00) (5, -2.64880865812301635742e-01) (0, 2.95077753067016601562e+00) (1, 4.39265727996826171875e-01) (2, -2.16071918606758117676e-01) (3, 6.50436878204345703125e-01) (4, -1.50829389691352844238e-01) (5, -4.99077230691909790039e-01) (0, -2.56920852661132812500e+01) (1, 3.14904212951660156250e-01) (2, 9.05200660228729248047e-01) (3, 7.98895299434661865234e-01) (4, 7.63693451881408691406e-01) (5, -3.15787583589553833008e-01) (0, -2.59879970550537109375e+01) (1, 6.74937903881072998047e-01) (2, 5.49380004405975341797e-01) (3, 9.80683743953704833984e-01) (4, 6.36324286460876464844e-02) (5, -4.35852587223052978516e-01) (0, 5.73331184387207031250e+01) (1, 1.61269009113311767578e-01) (2, 7.86559805274009704590e-02) (3, 3.49316895008087158203e-01) (4, -9.00676071643829345703e-01) (5, 1.99335306882858276367e-01) (0, -5.87706565856933593750e+00) (1, 1.42891064286231994629e-01) (2, -3.91181111335754394531e-01) (3, -4.16379898786544799805e-01) (4, 5.25247335433959960938e-01) (5, -3.27238410711288452148e-01) (0, -4.57745265960693359375e+00) (1, 5.65576218068599700928e-02) (2, -3.83882641792297363281e-01) (3, -1.89274713397026062012e-01) (4, 2.36932858824729919434e-02) (5, 6.54987812042236328125e-01) (0, -4.88260793685913085938e+00) (1, 2.21138969063758850098e-01) (2, -4.07878190279006958008e-01) (3, -3.03889602422714233398e-01) (4, 7.66217410564422607422e-02) (5, 7.18228220939636230469e-01) (0, 3.12228374481201171875e+01) (1, -1.68539333343505859375e+00) (2, -5.06340694427490234375e+00) (3, -1.11424016952514648438e+00) (4, -3.72069191932678222656e+00) (5, -3.03937345743179321289e-01) (0, -4.56288337707519531250e+00) (1, 2.40769684314727783203e-01) (2, -3.63870143890380859375e-01) (3, -2.80084908008575439453e-01) (4, -2.18805801123380661011e-02) (5, 6.99818611145019531250e-01) (0, -3.08907359838485717773e-01) (1, 2.05044239759445190430e-01) (2, 3.04315209388732910156e-01) (3, 7.19396770000457763672e-01) (4, 2.98899799585342407227e-01) (5, -3.64176303148269653320e-01) (0, -3.51895904541015625000e+01) (1, 6.60266757011413574219e-01) (2, -4.30974602699279785156e-01) (3, -1.19289529323577880859e+00) (4, 3.82997453212738037109e-01) (5, -4.14028942584991455078e-01) (0, 1.50000000000000000000e+03) (1, -5.36221861839294433594e-01) (2, -4.30516488850116729736e-02) (3, -9.54307556152343750000e-01) (4, 1.16893887519836425781e+00) (5, 3.08170139789581298828e-01) (0, -4.02907180786132812500e+00) (1, 8.78618434071540832520e-02) (2, -4.01468396186828613281e-01) (3, -5.82733154296875000000e-01) (4, 1.51766985654830932617e-02) (5, -3.66468608379364013672e-01) (0, -1.89634478092193603516e+00) (1, -5.06377458572387695312e-01) (2, 1.10507994890213012695e-01) (3, -3.92842173576354980469e-01) (4, 9.89577293395996093750e-01) (5, -2.10954830050468444824e-01) (0, -4.74239635467529296875e+00) (1, -2.61287659406661987305e-01) (2, -3.51807177066802978516e-01) (3, 3.49191308021545410156e-01) (4, 4.57648523151874542236e-02) (5, 6.09867334365844726562e-01) (0, -1.62560214996337890625e+01) (1, -2.74611450731754302979e-02) (2, 5.00868141651153564453e-01) (3, 8.14729332923889160156e-01) (4, 1.67947590351104736328e+00) (5, -1.68066397309303283691e-01) (0, -3.89740562438964843750e+00) (1, 1.41523241996765136719e+00) (2, 8.22243571281433105469e-01) (3, 2.14378952980041503906e+00) (4, 9.31543231010437011719e-01) (5, 1.36961638927459716797e+00) (0, -4.70920467376708984375e+00) (1, -2.85344362258911132812e-01) (2, -3.66590648889541625977e-01) (3, 3.60502958297729492188e-01) (4, 5.52162416279315948486e-02) (5, 6.25184655189514160156e-01) (0, -1.07196578979492187500e+01) (1, -2.00975537300109863281e+00) (2, -2.12481319904327392578e-01) (3, -8.95969867706298828125e-01) (4, 1.51846599578857421875e+00) (5, -1.47032976150512695312e-01) (0, 2.24879550933837890625e+01) (1, 1.24616689980030059814e-01) (2, -1.61623090505599975586e-01) (3, -1.49705082178115844727e-01) (4, -3.43896836042404174805e-01) (5, 1.18293714523315429688e+00) (0, -5.82563591003417968750e+01) (1, -8.75563204288482666016e-01) (2, -1.48636400699615478516e-01) (3, 1.19687032699584960938e+00) (4, -3.41393113136291503906e-01) (5, -2.62089103460311889648e-01) (0, -4.32985877990722656250e+00) (1, 2.26202949881553649902e-01) (2, -3.91065835952758789062e-01) (3, -5.68864762783050537109e-01) (4, 7.08341896533966064453e-02) (5, -2.97008693218231201172e-01) (0, 3.41240358352661132812e+00) (1, 5.70343911647796630859e-01) (2, -1.16692893207073211670e-01) (3, 6.30953729152679443359e-01) (4, -2.84465014934539794922e-01) (5, -5.12335240840911865234e-01) (0, 3.17074704170227050781e+00) (1, 4.65206861495971679688e-01) (2, -1.00824885070323944092e-01) (3, 6.46743714809417724609e-01) (4, -2.46172100305557250977e-01) (5, -5.03375530242919921875e-01) (0, -1.71880702972412109375e+01) (1, 7.03749656677246093750e-01) (2, 5.59340834617614746094e-01) (3, 7.48738884925842285156e-01) (4, 1.69949197769165039062e+00) (5, 2.20805525779724121094e-01) (0, 4.22001457214355468750e+01) (1, 8.12064170837402343750e-01) (2, -1.64248371124267578125e+00) (3, 1.14317226409912109375e+01) (4, -1.05507767200469970703e+00) (5, 8.58061462640762329102e-02) (0, 6.59393882751464843750e+00) (1, 1.20342910289764404297e+00) (2, 1.84807524085044860840e-01) (3, 6.56991183757781982422e-01) (4, -2.76720345020294189453e-01) (5, -4.46809947490692138672e-01) (0, 8.80677759647369384766e-01) (1, 2.59560406208038330078e-01) (2, 4.80372726917266845703e-01) (3, 7.90495038032531738281e-01) (4, -4.18776422739028930664e-02) (5, -3.78016263246536254883e-01) (0, 4.07291427254676818848e-02) (1, 3.55310589075088500977e-01) (2, 4.07144784927368164062e-01) (3, 7.42640137672424316406e-01) (4, 1.93956062197685241699e-01) (5, -4.08477455377578735352e-01) (0, 1.50000000000000000000e+03) (1, -6.96747124195098876953e-01) (2, 3.78909558057785034180e-02) (3, 3.10278177261352539062e-01) (4, 6.85523867607116699219e-01) (5, 5.66859781742095947266e-01) (0, 2.63249015808105468750e+00) (1, 2.69208908081054687500e-01) (2, -6.89973384141921997070e-02) (3, 8.16868603229522705078e-01) (4, -1.91473275423049926758e-01) (5, -4.02300119400024414062e-01) (0, 2.59983420372009277344e+00) (1, 1.01118691265583038330e-01) (2, -1.42542168498039245605e-01) (3, 8.37267875671386718750e-01) (4, -1.66603565216064453125e-01) (5, -4.45189923048019409180e-01) (0, -4.12722301483154296875e+00) (1, -1.39062255620956420898e-01) (2, -3.94493788480758666992e-01) (3, -5.78727960586547851562e-01) (4, 5.24784112349152565002e-03) (5, -3.09899538755416870117e-01) (0, -1.86246681213378906250e+01) (1, 3.13911885023117065430e-01) (2, 4.32585686445236206055e-01) (3, -1.26468682289123535156e+00) (4, -1.02889314293861389160e-01) (5, -3.35328072309494018555e-01) (0, -1.24432210922241210938e+01) (1, -3.29182773828506469727e-01) (2, 2.83679634332656860352e-01) (3, -3.17050307989120483398e-01) (4, -2.79688119888305664062e-01) (5, -2.97757476568222045898e-01) (0, -1.20083236694335937500e+01) (1, -2.48451307415962219238e-01) (2, 2.77241796255111694336e-01) (3, -2.97557432204484939575e-02) (4, -3.31569880247116088867e-01) (5, -3.19188535213470458984e-01) (0, -3.41610932350158691406e+00) (1, 1.36362695693969726562e+00) (2, 9.33721661567687988281e-01) (3, 2.03725242614746093750e+00) (4, 9.38146173954010009766e-01) (5, 6.30318582057952880859e-01) (0, -1.00988292694091796875e+01) (1, -2.13638007640838623047e-01) (2, 3.03150087594985961914e-01) (3, 6.62689954042434692383e-02) (4, 6.53776526451110839844e-01) (5, 7.14687585830688476562e-01) (0, -1.42179651260375976562e+01) (1, 4.80414628982543945312e-01) (2, 6.68868303298950195312e-01) (3, -4.54562693834304809570e-01) (4, 1.74967706203460693359e-01) (5, 5.85606575012207031250e-01) (0, 1.50000000000000000000e+03) (1, -4.05259877443313598633e-01) (2, -2.85308003425598144531e-01) (3, 5.75974509119987487793e-02) (4, 7.70820617675781250000e-01) (5, 8.46703410148620605469e-01) (0, -7.64283514022827148438e+00) (1, -1.17079235613346099854e-01) (2, 6.42919659614562988281e-01) (3, -4.33103531599044799805e-01) (4, -2.74605453014373779297e-01) (5, -3.76981645822525024414e-01) (0, -4.13114023208618164062e+00) (1, 1.38864147663116455078e+00) (2, 9.88532543182373046875e-01) (3, 1.96014118194580078125e+00) (4, 9.02698278427124023438e-01) (5, 1.14686322212219238281e+00) (0, 1.97785186767578125000e+01) (1, 5.71019947528839111328e-02) (2, -1.21764443814754486084e-01) (3, -9.24263224005699157715e-02) (4, -4.61017400026321411133e-01) (5, 2.29821979999542236328e-01) (0, -3.98719835281372070312e+00) (1, 1.36732292175292968750e+00) (2, 9.03370440006256103516e-01) (3, 1.98427033424377441406e+00) (4, 9.76301789283752441406e-01) (5, 1.21573185920715332031e+00) (0, -3.58619475364685058594e+00) (1, -3.92401158809661865234e-01) (2, -4.16118711233139038086e-01) (3, 1.46301582455635070801e-01) (4, 5.68194203078746795654e-02) (5, -4.04309183359146118164e-01) (0, 2.82740688323974609375e+00) (1, 4.45710659027099609375e-01) (2, -1.47484391927719116211e-01) (3, 8.03340733051300048828e-01) (4, -1.69439360499382019043e-01) (5, -4.62136209011077880859e-01) (0, 1.50000000000000000000e+03) (1, -1.87566369771957397461e-01) (2, -5.29600940644741058350e-02) (3, -1.01156973838806152344e+00) (4, 1.13686752319335937500e+00) (5, 2.95775175094604492188e-01) (0, -9.32502651214599609375e+00) (1, 1.31399080157279968262e-01) (2, 4.99947011470794677734e-01) (3, 4.45939570665359497070e-01) (4, 3.86586934328079223633e-01) (5, -3.12810689210891723633e-01) (0, -4.67344522476196289062e+00) (1, 6.63644149899482727051e-02) (2, -4.97945040464401245117e-01) (3, -3.56077522039413452148e-01) (4, 4.93912585079669952393e-02) (5, 7.06821501255035400391e-01) (0, -4.58978557586669921875e+00) (1, 2.16287836432456970215e-01) (2, -3.62015157938003540039e-01) (3, -2.04702958464622497559e-01) (4, 8.18582996726036071777e-03) (5, 6.81694507598876953125e-01) (0, -3.16793751716613769531e+00) (1, 1.30695760250091552734e+00) (2, 9.55405950546264648438e-01) (3, 1.61137092113494873047e+00) (4, 1.03085482120513916016e+00) (5, 3.27734708786010742188e-01) (0, -3.43721504211425781250e+01) (1, 8.75763356685638427734e-01) (2, -1.42034530639648437500e-01) (3, -1.14766788482666015625e+00) (4, 2.67474174499511718750e-01) (5, 6.49690210819244384766e-01) (0, 2.32504320144653320312e+00) (1, -1.31226405501365661621e-01) (2, -1.26257343217730522156e-02) (3, 3.51126909255981445312e-01) (4, -1.92003965377807617188e-01) (5, -2.51817196607589721680e-01) (0, -3.36420083045959472656e+00) (1, 1.42878711223602294922e+00) (2, 8.72456848621368408203e-01) (3, 1.96103537082672119141e+00) (4, 9.90623295307159423828e-01) (5, 5.99160075187683105469e-01) (0, 8.51221024990081787109e-01) (1, 3.24566841125488281250e-01) (2, 4.93053615093231201172e-01) (3, 7.92115926742553710938e-01) (4, -2.72041410207748413086e-02) (5, -5.34594535827636718750e-01) (6, 6.17174506187438964844e-01) (7, 1.69067060947418212891e+00) (8, 1.24491453170776367188e+00) (9, 4.08531725406646728516e-01) (10, -3.28965336084365844727e-01) (11, 1.73392939567565917969e+00) (12, -6.17176890373229980469e-01) (13, -6.56661272048950195312e-01) (14, 4.69157338142395019531e-01) (15, 1.37730526924133300781e+00) (16, 1.22730183601379394531e+00) (17, 2.31629037857055664062e+00) (18, 1.46757984161376953125e+00) (19, -3.31459671258926391602e-01) (20, 1.86288878321647644043e-01) (21, -3.44833761453628540039e-01) (22, 1.04114758968353271484e+00) (23, -3.12978535890579223633e-01) (24, -3.08346122503280639648e-01) (25, 4.55741643905639648438e-01) (26, 3.31615060567855834961e-01) (27, -9.13565576076507568359e-01) (28, 6.52354598045349121094e-01) (29, 1.54530036449432373047e+00) (30, -2.29910686612129211426e-01) (31, 1.46659684181213378906e+00) (32, 2.33635187149047851562e+00) (33, 3.91134798526763916016e-01) (34, 2.18247532844543457031e-01) (35, -4.31333601474761962891e-01) (36, 1.65567171573638916016e+00) (37, 6.68103742599487304688e+00) (38, -1.28825891017913818359e+00) (39, 6.17937469482421875000e+00) (40, -3.07112276554107666016e-01) (41, -3.56502115726470947266e-01) (42, -3.08485895395278930664e-01) (43, 1.18406966328620910645e-01) (44, -3.06692332029342651367e-01) (45, -3.12936842441558837891e-01) (46, 1.06320226192474365234e+00) (47, 1.35561287403106689453e+00) (48, -3.49208295345306396484e-01) (49, -3.03215831518173217773e-01) (50, 9.42635715007781982422e-01) (51, 4.05804187059402465820e-01) (52, -1.82192206382751464844e+00) (53, 5.72582483291625976562e-01) (54, 6.09081411361694335938e+00) (55, 1.27773296833038330078e+00) (56, 9.15373563766479492188e-01) (57, 1.16435384750366210938e+00) (58, 2.62709522247314453125e+00) (59, 1.28024101257324218750e+00) (60, 8.50560188293457031250e+00) (61, 2.58111882209777832031e+00) (62, 4.61074352264404296875e-01) (63, 3.17325800657272338867e-01) (64, 9.32690382003784179688e-01) (65, 1.11373138427734375000e+00) (66, 1.50043797492980957031e+00) (67, -3.38615179061889648438e-01) (68, 5.15262007713317871094e-01) (69, 1.86283922195434570312e+00) (70, 1.43736898899078369141e+00) (71, 2.40698099136352539062e+00) (72, 3.45653742551803588867e-01) (73, 5.77145576477050781250e-01) (74, 2.39596530795097351074e-01) (75, 1.08897089958190917969e+00) (76, -8.67153823375701904297e-01) (77, -1.44480562210083007812e+00) (78, 4.19798195362091064453e-01) (79, 3.78975093364715576172e-01) (80, 4.63065922260284423828e-01) (81, 6.34941637516021728516e-01) (82, 5.43597519397735595703e-01) (83, 3.25804084539413452148e-01) (84, 1.50124800205230712891e+00) (85, 7.87923336029052734375e-01) (86, 1.10689520835876464844e+00) (87, -3.33567738533020019531e-01) (88, 1.22831201553344726562e+00) (89, 1.30020701885223388672e+00) (90, 1.46268224716186523438e+00) (91, 1.37992724776268005371e-01) (92, -3.48731666803359985352e-01) (93, 3.10881471633911132812e+00) (94, -3.28625172376632690430e-01) (95, 1.53672263026237487793e-01) (96, 4.28978890180587768555e-01) (97, 3.84582757949829101562e-01) (98, 1.41003334522247314453e+00) (99, 1.03543257713317871094e+00) (100, 1.18569326400756835938e+00) (101, -3.53318184614181518555e-01) (102, 6.73107194900512695312e+00) (103, 3.50287938117980957031e+00) (104, -3.15075695514678955078e-01) (105, 2.42886394262313842773e-01) (106, 4.32057082653045654297e-01) 
